tree
version=v3
num_class=4
num_tree_per_iteration=4
label_index=0
max_feature_idx=63
objective=multiclass num_class:4
feature_names=Column_0 Column_1 Column_2 Column_3 Column_4 Column_5 Column_6 Column_7 Column_8 Column_9 Column_10 Column_11 Column_12 Column_13 Column_14 Column_15 Column_16 Column_17 Column_18 Column_19 Column_20 Column_21 Column_22 Column_23 Column_24 Column_25 Column_26 Column_27 Column_28 Column_29 Column_30 Column_31 Column_32 Column_33 Column_34 Column_35 Column_36 Column_37 Column_38 Column_39 Column_40 Column_41 Column_42 Column_43 Column_44 Column_45 Column_46 Column_47 Column_48 Column_49 Column_50 Column_51 Column_52 Column_53 Column_54 Column_55 Column_56 Column_57 Column_58 Column_59 Column_60 Column_61 Column_62 Column_63
feature_infos=[-0.66663563907527823:0.42598141746313123] [-0.38984075945649255:0.74236709802334766] [-0.9419413767092335:0.18976587976350512] [0.065010662542257056:1.0397942662303867] [0.22404067432118591:1.035916925570723] [-1.0193827275746659:-0.079399639512334017] [-0.98758166532772251:-0.2788242992351479] [-0.39568110641935439:0.52239355109315955] [-0.39335947260313459:0.46290861462390542] [0.023895572731291934:1.0169187832473789] [-0.29592205823965667:0.77488003326497745] [-0.51815036848416929:0.54893683478812905] [-0.1440711383750985:0.67195995435276301] [0.12152844739204699:0.95802905781805625] [-0.39493044042609365:0.36710592743821541] [-0.54052345086333164:0.65898686270249729] [-0.62724452720012658:-0.12828838731608397] [-0.08764161091345217:0.94138182660976755] [-0.65638247808812167:0.23053255499103273] [0.04478046384777034:0.73508394967349755] [-0.28860068686215112:0.96529982283669047] [-0.37770998107816167:0.54936428379188573] [-0.90898620612567183:0.02779610442377492] [-0.46568974951306819:0.554074821365661] [-0.91451584457579949:0.14882235803030322] [-1.0000440425319947:0.10848430587196239] [-0.64463178919056308:0.3082198013460371] [-1.0961938553237411:0.35575256349400003] [0.045463754541167023:1.0099728899552693] [-0.38896145611033306:0.71783150115288041] [-0.1709902513609074:0.79293557171944506] [-0.29609488608129902:0.97973878413973092] [-0.37451138033127734:0.7875471795062623] [-0.34336994257282261:0.86428766218614417] [-0.34973227817281782:0.32233013458032012] [-0.28804906322598256:0.35970930657256162] [-0.14674109505997951:0.78872408775211411] [-0.070260374085965971:0.63829495316749951] [-0.41822295426984607:0.83782067851026409] [-0.89903875909215469:0.22825972835531394] [-0.52457183270763708:0.51696062926478548] [-0.60020902171402923:0.41024600973130643] [-0.49238712948013252:0.31713094611667236] [-0.64955328070692753:0.4635290006740182] [-0.85603199099019889:0.29406984257743274] [-0.93973388828900473:-0.0054068740147983629] [-0.096273429798400229:0.64716946977251] [-0.90591886276158884:0.137902049445041] [0.052361174309914389:0.91096506833941915] [0.14733412800322854:1.0746572839869657] [0.076452462258097154:0.97150443026256439] [-0.07293254417463288:0.90764442063589468] [0.14772128271722534:1.0118162606720844] [0.063028204720732103:0.97535285927147908] [-0.61097139703365033:0.46670594227099349] [-0.27333695172825001:0.74976009066007165] [-0.80445190794920785:0.076639161330605804] [-0.19629901338113476:0.53522954465524519] [-0.46785985842226807:0.59607461363664827] [-0.57581846386332569:0.28468792636836759] [-0.85470288414158246:0.29782361289848741] [-0.51668453548790882:0.65929501917563216] [-0.49833211902726982:0.68067555660525914] [-0.6676374117608217:0.46071372452866494]
tree_sizes=2825 4545 3764 5463 7371 8439 6822 8171 7596 8751 7703 8933 7810 8855 8026 8945 8365 8972 8253 8934 8130 8506 8901 8941 8122 8300 9027 8926 8564 8722 8798 8912 8562 8844 8932 8925 8565 8963 8810 8928 8111 8955 8492 8914 8880 8978 9029 8927 8766 8977 8802 8467 9087 8951 8704 8920 9097 8957 9039 8584 9077 9004 8823 8801 9099 8995 9052 8899 9084 9012 9034 8896 9112 9006 9040 8894 9086 9027 9044 8932 9096 9021 8998 8917 9098 9035 8997 8587 9091 9036 8996 8789 9086 8439 9024 8707 9089 8225 9025 7508 9087 7985 9041 7413 7621 8010 9050 7954 7489 7999 9030 7487 7499 8120 9042 7840 7504 7985 9038 7616 8052 7989 9037 7953 7941 7772 9034 7633 7962 7893 9036 7614 7938 7902 9042 7726 7616 8001 9045 7513 7177 8107 9050 7739 7293 7993 9050 7643 7284 8006 9043 7656 7294 7893 9043 7548 7052 8106 9058 7781 7168 7440 9036 7448 7271 7339 9040 7564 7061 7243 9032 7791 6841 7231 9039 7802 6618 7461 9039 7579 6619 7456 9036 7801 6620 7452 9046 7791 6620 7684 9039 7686 6603 7777 9039 7580 6402 7462 9055 7798 6613 8361 9027 7583 6496 8259 9014 7475 6718 8263 9020 7689 6617 8123 9021 7795 6722 8032 9018 7671 6921 8265 9030 8671 6617 8148 9018 8665 6511 8359 9023 8775 6514 8476 9027 8662 6517 8254 9034 8552

Tree=0
num_leaves=25
num_cat=0
split_feature=63 27 27 34 58 1 6 48 58 4 0 0 0 0 0 1 12 43 1 2 1 0 50 0
split_gain=1.20485e+06 52805.7 24666.4 6943.66 2639.99 1339.41 84.798 78.0841 31.6179 77.3072 1.16415e-10 1.16415e-10 5.82077e-11 5.82077e-11 3.63798e-12 3.63798e-12 3.63798e-12 9.09495e-13 4.54747e-13 2.27374e-13 1.13687e-13 5.68434e-14 5.68434e-14 1.42109e-14
threshold=0.044146264546920888 -0.31499254258422288 -0.084271294380839162 -0.14252584472284183 0.37461235083417338 0.28652274756312079 -0.46304378598820289 0.32525929107724555 0.041086879864793709 0.47359273511988798 0.27240702549986023 0.20650484150554785 0.36669016496056744 -0.20352696337735757 0.30002664011621238 0.42004394001349082 0.25017952256638371 -0.16918190518381693 0.31129399791268769 -0.28430297482277705 -0.18336733188119372 0.25521817698248556 0.47695384090848969 0.13244470429834607
decision_type=2 2 2 2 2 2 2 2 2 2 2 2 2 2 2 2 2 2 2 2 2 2 2 2
left_child=2 6 4 21 12 -6 17 -3 9 -9 11 -10 13 15 -5 -1 -13 -2 -14 -16 -12 22 -4 -7
right_child=1 7 3 14 5 23 -8 8 10 -11 20 16 18 -15 19 -17 -18 -19 -20 -21 -22 -23 -24 -25
leaf_value=-1.4542989564375395 -1.4542989564375395 -1.4327220880756153 -1.4542989564375395 -1.4126864245966855 -1.4126864245966855 -1.4542989564375395 -1.4339765571664249 -1.4126864245966855 -1.4126864245966855 -1.4353841692371514 -1.4126864245966855 -1.4126864245966855 -1.4542989564375395 -1.4542989564375395 -1.4126864245966855 -1.4542989564375395 -1.4126864245966855 -1.4542989564375395 -1.4542989564375395 -1.4126864245966855 -1.4126864245966855 -1.4542989564375395 -1.4542989564375395 -1.4542989564375395
leaf_weight=28018.48219871521 2147.189673781395 19.465289711952209 194.41258490085602 1682.4258428812027 229.97879326343536 88.915520906448364 20.666850805282593 51.667127013206482 94311.49146437645 21.147475242614746 66.085860133171082 280.68467140197754 1365.4540264606476 281063.88408303261 121.35767042636871 838.68964314460754 940.82233607769012 1004.2647618055344 1672.0924174785614 35.085583925247192 29.558402895927429 31.480900645256042 286.93278908729553 27.635905146598816
leaf_count=116592 8935 81 809 7001 957 370 86 215 392454 88 275 1168 5682 1169578 505 3490 3915 4179 6958 146 123 131 1194 115
internal_value=-1.44448 -1.41403 -1.45403 -1.42176 -1.45427 -1.42668 -1.45417 -1.4127 -1.41269 -1.41928 -1.41269 -1.41269 -1.4543 -1.4543 -1.41269 -1.4543 -1.41269 -1.4543 -1.4543 -1.41269 -1.41269 -1.4543 -1.4543 -1.4543
internal_weight=0 98893 315657 2351.7 313305 346.53 3172.12 95720.9 95701.5 72.8146 95628.6 95533 312959 309921 1838.87 28857.2 1221.51 3151.45 3037.55 156.443 95.6443 512.826 481.345 116.551
internal_count=1725047 411519 1313528 9786 1303742 1442 13200 398319 398238 303 397935 397537 1302300 1289660 7652 120082 5083 13114 12640 651 398 2134 2003 485
is_linear=0
shrinkage=1


Tree=1
num_leaves=41
num_cat=0
split_feature=17 59 60 60 17 23 18 0 2 17 0 13 60 8 24 1 8 53 22 0 38 47 0 0 0 1 0 0 1 0 2 14 20 25 0 7 20 0 27 0
split_gain=1.07399e+06 79870 75289.7 22296.3 18267.2 5198.37 3135.33 1860.01 1729.32 1187.9 663.43 509.989 417.506 2697.68 236.01 143.634 1028.86 50.7812 380.293 137.46 21.284 0.0384015 1.16415e-10 1.16415e-10 7.27596e-12 7.27596e-12 3.63798e-12 1.81899e-12 1.81899e-12 9.09495e-13 9.09495e-13 9.09495e-13 9.09495e-13 9.09495e-13 4.54747e-13 4.54747e-13 4.54747e-13 5.68434e-14 5.68434e-14 2.84217e-14
threshold=0.57206187370790162 0.075871424741306842 -0.28649238586104242 0.024875376364544947 0.43639824507994057 0.46351048430839525 -0.41141647705288448 0.067774087656675377 -0.051608532098048429 0.5097757602421279 -0.34978474507412494 0.66775046251831471 1.0000000180025095e-35 0.13165756488596644 -0.38258622543924942 0.6723267165150173 0.12775454439688028 0.49020581264037194 -0.33181977021761755 0.26430922052831052 -0.024365672347512687 -0.43613645872866408 0.36669016496056744 0.30540814896631224 0.35672139418104226 0.16130725010136007 0.38862594427497649 0.25301967617143706 0.48894876377731294 0.26430922052831052 0.013000095071329239 1.0000000180025095e-35 0.45429662668216148 -0.42692465534372032 0.058022303638825559 0.020689611680873746 0.48944599037797315 0.27240702549986023 -0.33974313057134536 0.26430922052831052
decision_type=2 2 2 2 2 2 2 2 2 2 2 2 2 2 2 2 2 2 2 2 2 2 2 2 2 2 2 2 2 2 2 2 2 2 2 2 2 2 2 2
left_child=1 3 29 5 36 6 8 -7 34 -5 -4 27 15 -14 -13 20 -17 18 30 -20 -8 22 23 -19 -25 -6 28 -11 -24 33 32 -29 -12 -2 -1 -9 -3 -31 -35 -10
right_child=2 4 10 9 25 7 12 35 39 11 17 14 13 -15 -16 16 -18 21 19 -21 -22 -23 26 24 -26 -27 -28 31 -30 37 -32 -33 -34 38 -36 -37 -38 -39 -40 -41
leaf_value=-1.1792669412356578 -1.2149873849282444 -1.2149873849282444 -1.2149873849282444 -1.2149873849282444 -1.1792669412356578 -1.2149873849282444 -1.2142664587027567 -1.1792669412356578 -1.2149873849282444 -1.1792669412356578 -1.1792669412356578 -1.2111789552698438 -1.2149873849282444 -1.1792669412356578 -1.1792669412356578 -1.2149873849282444 -1.1792669412356578 -1.1792669412356578 -1.1792669412356578 -1.2016693923416257 -1.2149604603905813 -1.1796510320280513 -1.1792669412356578 -1.1792669412356578 -1.1792669412356578 -1.1792669412356578 -1.1792669412356578 -1.1792669412356578 -1.1792669412356578 -1.2149873849282444 -1.1792669412356578 -1.1792669412356578 -1.1792669412356578 -1.2149873849282444 -1.1792669412356578 -1.1792669412356578 -1.2149873849282444 -1.2149873849282444 -1.2149873849282444 -1.2149873849282444
leaf_weight=358.89810687303543 5534.365580946207 766.78776499629021 52.071020185947418 104.98189553618431 1460.2281789779663 197.3659636080265 4480.3473497629166 122.8988057076931 122.33890226483345 851.05323314666748 434.76502338051796 76.146868228912354 1544.4936471283436 244.95775625109673 33.314254850149155 647.52833166718483 92.104116350412369 120978.89680212736 36.113772064447403 113.38044717907906 323125.31600528955 26.035510092973709 1524.3371231853962 6976.6768497526646 1129.6051959693432 6584.7444397509098 1385.7610210776329 443.44352674484253 33.874158293008804 143.89518481492996 56.83019945025444 600.21649074554443 617.29354575276375 278.27201110124588 24.35579976439476 434.76502338051796 974.79189401865005 174.96982589364052 54.310633957386017 87.344937086105347
leaf_count=1282 19769 2739 186 375 5216 705 16004 439 437 3040 1553 272 5517 875 119 2313 329 432142 129 405 1154218 93 5445 24921 4035 23521 4950 1584 121 514 203 2144 2205 994 87 1553 3482 625 194 312
internal_value=-1.20427 -1.21378 -1.18088 -1.21461 -1.18562 -1.21481 -1.21487 -1.1886 -1.1919 -1.1822 -1.1793 -1.18048 -1.21491 -1.2101 -1.20147 -1.21494 -1.21054 -1.17929 -1.18129 -1.19626 -1.21495 -1.17927 -1.17927 -1.17927 -1.17927 -1.17927 -1.17927 -1.17927 -1.17927 -1.21499 -1.17927 -1.17927 -1.17927 -1.21499 -1.17927 -1.17927 -1.21499 -1.21499 -1.21499 -1.21499
internal_weight=0 343378 139551 333592 9786.55 331483 330728 755.03 592.938 2109.16 133366 2004.17 330135 1789.45 109.461 328345 739.632 133314 1258.38 149.494 327606 132055 132029 129085 8106.28 8044.97 2943.97 1894.71 1558.21 6185.81 1108.89 1043.66 1052.06 5866.95 383.254 557.664 1741.58 318.865 332.583 209.684
internal_count=1725047 1226563 498484 1191605 34958 1184071 1181374 2697 2118 7534 476388 7159 1179256 6392 391 1172864 2642 476202 4495 534 1170222 471707 471614 461098 28956 28737 10516 6768 5566 22096 3961 3728 3758 20957 1369 1992 6221 1139 1188 749
is_linear=0
shrinkage=1


Tree=2
num_leaves=34
num_cat=0
split_feature=48 53 60 46 21 21 60 22 51 61 49 14 1 17 51 54 30 21 5 14 0 51 0 5 0 0 31 0 1 41 0 1 0
split_gain=637403 449422 32803.4 28651.1 22539 14803.4 43193.4 12345.3 6503.11 3108.78 1636.52 14967.4 1045.08 823.122 525.709 8687.71 402.372 350.78 331.83 80.0071 30.9747 0.529217 2.32831e-10 1.45519e-11 7.27596e-12 7.27596e-12 3.63798e-12 1.81899e-12 9.09495e-13 2.27374e-13 1.13687e-13 1.13687e-13 2.84217e-14
threshold=0.35410295899922101 0.45497405678069947 -0.70060562752012312 0.45956934328346155 0.036760013352475883 -0.22176109912333147 -0.378835243481004 -0.51234078521832249 0.13348939124601608 0.20156870584153566 0.89362970791789875 0.050303714936349699 0.12235743943835538 0.44595251124990548 0.21482686481388322 -0.069567037047339422 0.45914676772295793 -0.21792040869160337 -0.6250921341525808 0.19589894497331684 0.28399880213549961 0.40752512959917131 0.083626965476894147 -0.79010657608365387 0.22700234472777647 0.28927372219425612 0.53012996872760121 -0.03122397881019014 0.19398725033100972 -0.2386156950678115 0.2444225586727182 0.35876879188919303 -0.018151003598867909
decision_type=2 2 2 2 2 2 2 2 2 2 2 2 2 2 2 2 2 2 2 2 2 2 2 2 2 2 2 2 2 2 2 2 2
left_child=1 13 26 5 9 6 12 20 18 22 14 29 -4 19 15 -10 -6 -16 -7 -1 24 -8 23 -3 -5 -14 -2 -13 -27 -12 31 -23 -18
right_child=2 4 3 7 16 8 21 -9 10 -11 11 27 25 -15 17 -17 32 -19 -20 -21 -22 30 -24 -25 -26 28 -28 -29 -30 -31 -32 -33 -34
leaf_value=-2.5807698364209579 -2.4743963132087563 -2.4743963132087563 -2.5807698364209579 -2.4743963132087563 -2.5063083701724165 -2.4743963132087563 -2.5781104983406529 -2.5807698364209579 -2.4795040189162312 -2.5807698364209579 -2.5807698364209579 -2.4743963132087563 -2.4743963132087563 -2.4825788919173872 -2.5687612312070711 -2.5807698364209579 -2.5807698364209579 -2.5807012325471907 -2.5448687723368399 -2.5487296185859574 -2.4941867361319563 -2.5807698364209579 -2.4743963132087563 -2.4743963132087563 -2.4743963132087563 -2.4743963132087563 -2.4743963132087563 -2.4743963132087563 -2.4743963132087563 -2.5807698364209579 -2.5807698364209579 -2.5807698364209579 -2.5807698364209579
leaf_weight=6677.5075586736202 255.98475429415703 113.93812787532806 9.4008356332778913 348.58298528194427 7.5206685066223136 59.883322983980179 7.5206685066223136 156.33589658141136 90.060005366802216 27.544448405504227 391.63881248235703 111.86994403600693 475.40025797486305 8.5547604262828809 246.48991030454636 1428.4569744765759 198.82767364382744 138330.38208463788 7.5206685066223136 7.8026935756206504 8.0847186446189863 1305.5880527496338 9723.4723122119904 921.09387534856796 14.383278518915175 11.469019472599028 39.859543085098267 35.441150337457657 39.859543085098267 904.36038792133331 14.477286875247954 181.24811100959778 8.2727353572845441
leaf_count=71031 2723 1212 100 3708 80 637 80 1663 958 293 4166 1190 5057 91 2622 15195 2115 1471469 80 83 86 13888 103432 9798 153 122 424 377 424 9620 154 1928 88
internal_value=-2.57265 -2.516 -2.57959 -2.5798 -2.47669 -2.58007 -2.55336 -2.50623 -2.58046 -2.47467 -2.58051 -2.56991 -2.47626 -2.58061 -2.58062 -2.57476 -2.57816 -2.58068 -2.48226 -2.58073 -2.47483 -2.58076 -2.4744 -2.4744 -2.4744 -2.4744 -2.4744 -2.4744 -2.4744 -2.58077 -2.58077 -2.58077 -2.58077
internal_weight=0 17694.5 144474 144178 11000.7 143651 2044.96 527.387 141606 10786 141539 1443.31 536.13 6693.87 140095 1518.52 214.621 138577 67.404 6685.31 371.051 1508.83 10758.5 1035.03 362.966 526.729 295.844 147.311 51.3286 1296 1501.31 1486.84 207.1
internal_count=1725047 188223 1536824 1533677 117018 1528067 21753 5610 1506314 114735 1505597 15353 5703 71205 1490244 16153 2283 1474091 717 71114 3947 16050 114442 11010 3861 5603 3147 1567 546 13786 15970 15816 2203
is_linear=0
shrinkage=1


Tree=3
num_leaves=49
num_cat=0
split_feature=53 30 63 17 2 0 0 1 8 49 0 53 11 46 3 16 58 32 34 46 0 0 18 12 61 53 35 58 14 27 17 0 2 0 1 0 0 0 3 8 31 40 0 1 3 0 56 1
split_gain=1.02955e+06 145689 58165.8 18192.7 11225.8 3982.4 3930.31 3779.9 3014.25 2007.39 1630.24 1389.42 1214.48 1020.71 1418.51 486.065 297.076 2092.1 260.034 228.351 231.639 118.236 48.1609 51.2108 12.5201 215.044 13.8474 11.8724 3.87604 0.152321 1.45519e-11 1.81899e-12 1.81899e-12 9.09495e-13 9.09495e-13 4.54747e-13 4.54747e-13 2.27374e-13 2.27374e-13 2.27374e-13 2.27374e-13 2.27374e-13 1.13687e-13 1.13687e-13 1.13687e-13 5.68434e-14 5.68434e-14 2.84217e-14
threshold=0.51319143851810833 0.20502946245615283 -0.046912456352309104 0.54060589891488542 -0.45418511605712719 0.0081418688414989209 0.24761332531431726 0.26898491169764965 -0.14995964958336597 0.36861986398177082 0.059360616026848334 0.3892429183558811 0.26873444931401763 0.45956934328346155 0.56493132310947936 -0.19905232970655837 0.17056674652747703 0.43580608904370033 0.082310873750368649 0.17575574689220169 0.26430922052831052 0.23837843218809415 -0.40681706665938794 0.11471396672468613 0.4712915453510737 0.57010668361450068 0.28478293464309579 0.13679502479719133 -0.23522346952483225 -0.49684886862717603 0.27269438289993381 0.2203892413091674 -0.43447726101677159 -0.097562512165205478 -0.076294982378661405 0.28399880213549961 0.28625627056245823 -0.11108808275758782 0.51326910913774293 0.09310440978799249 0.38547593032455046 0.46631695171182319 0.029039423374750795 -0.247503326735898 0.53849197134794957 0.20938012134569098 -0.30378281329786799 0.37360050745753121
decision_type=2 2 2 2 2 2 2 2 2 2 2 2 2 2 2 2 2 2 2 2 2 2 2 2 2 2 2 2 2 2 2 2 2 2 2 2 2 2 2 2 2 2 2 2 2 2 2 2
left_child=2 10 3 6 28 38 13 35 -3 44 30 42 15 16 37 24 22 29 -19 20 -7 -12 23 -1 26 -26 -11 -24 -4 -18 -2 32 41 34 43 -8 -21 -15 -5 -37 -9 -13 -6 -30 -10 -16 -46 -23
right_child=1 8 4 5 11 19 7 40 9 12 21 31 -14 14 45 -17 17 18 -20 36 -22 47 27 -25 25 -27 -28 -29 33 -31 -32 -33 -34 -35 -36 39 -38 -39 -40 -41 -42 -43 -44 -45 46 -47 -48 -49
leaf_value=-0.92769881169374346 -0.92769881169374346 -0.92769881169374346 -0.93164732235922165 -0.92769881169374346 -0.92769881169374346 -0.95928689701756942 -0.92769881169374346 -0.95928689701756942 -0.92769881169374346 -0.95928689701756942 -0.94586196075494344 -0.95928689701756942 -0.92769881169374346 -0.92769881169374346 -0.95928689701756942 -0.92790129942017829 -0.92769881169374346 -0.95757489664401452 -0.92769881169374346 -0.95928689701756942 -0.9401380338379709 -0.95928689701756942 -0.92771876872512704 -0.94650969396523532 -0.95075044076102944 -0.95928689701756942 -0.95763574632236015 -0.92838907814601224 -0.92769881169374346 -0.92846925279920267 -0.92769881169374346 -0.95928689701756942 -0.95928689701756942 -0.92769881169374346 -0.92769881169374346 -0.92769881169374346 -0.95928689701756942 -0.92769881169374346 -0.92769881169374346 -0.92769881169374346 -0.95928689701756942 -0.95928689701756942 -0.92769881169374346 -0.92769881169374346 -0.92769881169374346 -0.95928689701756942 -0.92769881169374346 -0.95928689701756942
leaf_weight=29.758054733276367 12657.303663253784 303.27889823913574 25.326004028320312 325.75572681427002 113.01729297637939 120.61509418487549 204.82405757904053 61.098984718322754 122.19796943664551 316604.17525863647 126.63002014160156 665.12418079376221 121.8813943862915 51.918308258056641 182.03065395355225 49.385707855224609 2236.9193058013916 297.89712238311768 32.290655136108398 1734.8312759399414 132.64494609832764 91.806764602661133 187402.61598300934 28.175179481506348 312.77614974975586 5222.2220306396484 508.73610591888428 2680.1243762969971 98.454840660095215 25.95915412902832 2885.5815839767456 144.04164791107178 6815.8608341217041 35.772980690002441 1178.9254875183105 328.92147731781006 456.50122261047363 284.91754531860352 191.21133041381836 201.34173202514648 720.52481460571289 35.456405639648438 28.808329582214355 41.471331596374512 25.642579078674316 63.948160171508789 53.817758560180664 44.320507049560547
leaf_count=94 39982 958 80 1029 357 381 647 193 386 1000092 400 2101 385 164 575 156 7066 941 102 5480 419 290 591969 89 988 16496 1607 8466 311 82 9115 455 21530 113 3724 1039 1442 900 604 636 2276 112 91 131 81 202 170 140
internal_value=-0.947034 -0.957761 -0.929459 -0.928317 -0.954063 -0.952915 -0.927943 -0.943977 -0.95921 -0.95924 -0.928116 -0.958713 -0.959259 -0.927817 -0.941031 -0.959271 -0.927777 -0.931139 -0.954653 -0.958248 -0.949258 -0.952817 -0.927731 -0.936847 -0.959276 -0.958805 -0.959284 -0.927728 -0.927771 -0.927708 -0.927699 -0.959287 -0.959287 -0.927699 -0.927699 -0.927699 -0.959287 -0.927699 -0.927699 -0.927699 -0.959287 -0.959287 -0.927699 -0.927699 -0.927699 -0.959287 -0.927699 -0.959287
internal_weight=0 339130 206977 197795 9182.26 2961.56 194833 1516.71 323324 323021 15805.6 7802.31 322819 193317 582.815 322697 192734 2593.07 330.188 2444.59 253.26 262.757 190141 57.9332 322648 5535 317113 190083 1379.95 2262.88 15542.9 7660.48 7516.44 1354.62 1318.85 735.087 2191.33 336.836 516.967 530.263 781.624 700.581 141.826 139.926 201.658 245.979 79.4603 136.127
internal_count=1725047 1071246 653801 624796 29005 9355 615441 4791 1021319 1020361 49927 24646 1019724 610650 1841 1019339 608809 8191 1043 7722 800 830 600618 183 1019183 17484 1001699 600435 4359 7148 49097 24198 23743 4279 4166 2322 6922 1064 1633 1675 2469 2213 448 442 637 777 251 430
is_linear=0
shrinkage=1


Tree=4
num_leaves=64
num_cat=0
split_feature=63 27 27 34 58 1 4 48 58 4 17 51 53 43 0 19 22 14 21 10 35 34 60 62 20 38 25 24 30 48 58 39 41 18 1 5 39 55 12 39 48 2 19 20 12 20 0 6 5 48 2 17 2 5 0 22 0 55 0 10 0 0 15
split_gain=1.16307e+06 49940.3 24115.3 6586.86 2587.81 1278.06 91.8419 72.7425 29.0548 72.2037 0.0221002 0.0109506 0.00170856 0.00133559 0.00107965 0.000489442 0.000473001 0.000313645 0.000233406 0.000229493 0.000219181 0.000105466 0.000104116 9.63734e-05 9.53311e-05 8.8013e-05 8.61406e-05 6.63014e-05 5.95442e-05 5.22084e-05 4.55097e-05 0.000938735 1.55436e-05 1.18094e-05 6.56108e-06 6.06856e-06 4.76837e-06 2.16252e-06 1.11116e-06 9.96287e-07 9.33356e-07 4.42699e-07 9.03102e-08 3.76397e-08 8.61617e-09 6.04578e-09 3.45324e-09 3.35422e-09 9.51331e-10 2.5392e-10 2.251e-10 1.38371e-10 1.32957e-10 1.67688e-11 3.63798e-12 1.87583e-12 2.27374e-13 2.27374e-13 1.13687e-13 5.68434e-14 2.84217e-14 1.42109e-14 1.42109e-14
threshold=0.044146264546920888 -0.31499254258422288 -0.084271294380839162 -0.14252584472284183 0.37461235083417338 0.28652274756312079 0.37803415245041688 0.32525929107724555 0.041086879864793709 0.47359273511988798 0.42817253332949995 0.33527534556859806 0.4474623672055783 -0.22504013083610666 0.24761332531431726 0.5067190249121305 -0.45928940296981163 -0.081171975165231933 -0.21792040869160337 0.41326756394529723 0.28478293464309579 0.12029595019857221 -0.60070081456738544 0.36319185635899193 0.58013523479874729 -0.024365672347512687 -0.53004251330444341 -0.59294576400263976 0.68825633421479615 0.33642042507135855 0.13679502479719133 -0.19752216673449649 0.036451044934782163 -0.40681706665938794 0.23531729796730513 -0.627607562181977 -0.38682315148635166 0.22375257793598211 0.06249577285447365 -0.35337753496421381 0.3473362654315974 -0.5182376359674572 0.51046906108987067 0.52828633119584789 0.30912680741954723 0.5745654440757918 -0.20352696337735757 -0.48290821638458825 -0.54554423521292739 0.30581648306581272 -0.058128825287666032 0.57568431360549455 -0.41776609594140512 -0.72290944384193156 0.16360952402178489 -0.47437163007451427 0.1004174192955495 0.43964975399741185 0.1044072458847508 0.31577767952417646 -0.037220372668459657 0.15145167097455295 -0.1357646507849726
decision_type=2 2 2 2 2 2 2 2 2 2 2 2 2 2 2 2 2 2 2 2 2 2 2 2 2 2 2 2 2 2 2 2 2 2 2 2 2 2 2 2 2 2 2 2 2 2 2 2 2 2 2 2 2 2 2 2 2 2 2 2 2 2 2
left_child=2 6 4 42 10 50 -2 -3 9 -9 14 21 35 15 22 -14 32 34 19 43 25 24 36 37 27 -20 -26 -12 -27 -15 33 -32 -16 -24 -8 40 45 -19 -23 44 -13 -34 49 -10 -39 -1 -22 54 -41 53 56 61 62 -4 -5 -51 -6 -36 -58 -55 -40 -7 -18
right_child=1 7 3 47 5 51 17 8 18 -11 11 12 13 29 16 -17 52 23 20 -21 46 38 30 -25 26 28 -28 -29 -30 -31 31 -33 41 -35 57 -37 -38 39 60 48 -42 -43 -44 -45 -46 -47 -48 -49 -50 55 -52 -53 -54 59 -56 -57 58 -59 -60 -61 -62 -63 -64
leaf_value=-0.0097925359437632479 0.012244398401284384 0.011524639307442242 -0.0097812098686432675 0.030774487149706188 0.030774487149706188 -0.0097925359437632479 -0.0097808887152928299 0.030774487149706188 0.030774327988863131 0.008957066219118421 -0.0097964372430742828 -0.009779257953678051 -0.0097920244756960553 -0.0097751558751447681 -0.0098003005550736134 -0.0098070241506854876 -0.0097811798770629649 -0.0097895903904506761 0.03078083191231086 0.030802501707769939 0.030793828731378415 -0.0097838002283906402 -0.0097874200558935344 -0.0098143583212047455 -0.009793676356492852 0.030774492470718246 -0.0098161906427274292 -0.0097925701627853343 0.03078085242812208 -0.0097856813012335425 -0.0097815591919564165 -0.0098122182129779818 -0.0097938092918342899 -0.0097812034697643529 -0.0097856877043650242 -0.0097866075013486285 -0.0097870245932184172 -0.0097937321688021956 -0.0097856877043650242 -0.0097925359437632479 -0.0097812012689571619 -0.0097925359437632479 -0.0097819134096543466 0.030774864553104533 -0.0097939917880976377 -0.0097927335742152167 0.030793990455629354 0.030774377368477199 -0.0097925601564514009 -0.0097811986897435484 0.030774452211864253 -0.0097925601564514009 -0.0097811950439398495 -0.0097812193564018688 0.030774487149706188 -0.0097811950439398495 0.030774487149706188 -0.0097856877043650242 0.030774487149706188 -0.0097812193564018688 -0.0097856877043650242 -0.0097925359437632479 -0.0097811798770629649
leaf_weight=58.57224814593792 19.029716402292252 19.64411099255085 19.55212339758873 1151.8433573395014 136.63855487108231 63.831796959042549 29.564407140016556 52.836851254105568 38.091817423701286 21.277305692434311 451.29044705629349 24.786370798945427 1782.2931994199753 47.14419025182724 26.584164813160896 247.78236047923565 24.082326322793961 24.607340693473816 220.16374397277832 59.189901664853096 38.321110725402832 38.88934451341629 30.564313337206841 20.422505304217339 35.391689762473106 97250.268275693059 32.690831542015076 25228.339085757732 147.43100294470787 122522.23533378541 5196.0415658503771 101.82512564957142 27.979488849639893 144439.89866702259 752.35079789161682 20.770378470420837 19.101078301668167 20.087482184171677 136.76935507357121 2046.4426290988922 8581.2191750854254 1129.607642814517 19.316843494772911 19.905811309814453 35.155193194746971 21.039151757955551 20.143077075481415 28.261639937758446 176.19586265087128 24.559312760829926 20.151744872331619 32.99189829826355 439.92131799459457 273.01498524844646 700.39547011256218 33.143123686313629 26.541302025318146 30.7910066395998 51.853840067982674 139.24956452846527 20.766027733683586 19.125632047653198 42.442119657993317
leaf_count=245 79 81 82 4687 556 267 124 215 155 88 1886 104 7456 198 111 1033 101 103 896 241 156 163 128 85 148 395724 136 105526 600 513312 21790 424 117 605770 3152 87 80 84 573 8560 35989 4725 81 81 147 88 82 115 737 103 82 138 1845 1145 2850 139 108 129 211 584 87 80 178
internal_value=0 0.0295039 -0.00951033 0.0221377 -0.00975341 0.0173787 -0.00965794 0.0307659 0.0307698 0.024511 -0.00978407 -0.00978667 -0.00978551 -0.00978581 -0.00978133 -0.00979386 -0.00978928 -0.00979086 0.0307745 0.0307886 0.0307745 -0.00979261 -0.00978124 -0.00979273 -0.00979267 0.0307745 -0.00980449 -0.00979264 0.0307745 -0.00978568 -0.00978124 -0.00978215 -0.00979274 -0.0097812 -0.00978551 -0.00978121 -0.00979151 -0.00979254 -0.00978531 -0.00979257 -0.0097812 -0.00979257 -0.00978124 0.0307745 -0.0097939 -0.00979259 0.0307939 0.0307745 -0.00979254 -0.00978122 0.0307745 -0.00979254 -0.00978119 -0.00978122 0.0307745 -0.0097812 0.0307745 -0.00978569 0.0307745 -0.00978122 -0.00978569 -0.00979254 -0.00978118
internal_weight=0 101042 313468 2389.34 311079 351.135 3154.65 97887.3 97867.6 74.1142 310728 159170 133226 124599 151558 2030.08 1690.62 3135.62 97793.5 117.188 97676.3 25944.1 149867 2322.91 25747.7 97617.9 68.0825 25679.6 97397.7 122569 149768 5297.87 1184.17 144470 812.706 8626.78 98.7125 2302.49 196.425 2277.88 8606.01 1157.59 508.836 57.9976 55.2427 79.6114 58.4642 1880.5 2222.64 489.519 235.185 115.949 506.446 431.817 1852.24 57.7024 215.034 783.142 78.3951 412.265 157.535 82.9574 66.5244
internal_count=1725047 411519 1313528 9786 1303742 1442 13200 398319 398238 303 1302300 666698 558179 521999 635602 8489 7077 13121 397935 477 397458 108519 628525 9716 107696 397220 284 107412 396324 513510 628112 22214 4953 605898 3405 36180 413 9631 823 9528 36093 4842 2134 236 231 333 238 7652 9297 2053 957 485 2124 1811 7537 242 875 3281 319 1729 660 347 279
is_linear=0
shrinkage=0.01


Tree=5
num_leaves=75
num_cat=0
split_feature=17 59 60 17 60 23 0 17 0 13 14 18 2 0 33 0 53 22 0 38 25 14 47 52 35 3 16 0 16 21 21 59 11 5 36 5 51 51 24 40 40 56 10 16 46 2 0 59 49 13 2 0 10 49 14 0 37 18 14 17 2 12 21 0 22 0 26 0 6 5 7 37 0 0
split_gain=1.04251e+06 78312.2 72272 31728.8 16402.9 2964.69 1575.6 1099.88 634.196 503.553 453.804 315.161 1288.74 206.188 158.923 161.313 47.5945 360.14 131.71 21.4663 917.045 9.93064 0.0366105 0.0093019 0.00490465 0.00123561 0.000932612 0.000861551 0.000755951 0.000493341 0.00149022 0.000488532 0.000460822 0.000641931 0.000212684 0.000143565 0.000114744 9.87787e-05 5.41582e-05 5.33233e-05 5.10518e-05 3.36278e-05 2.99352e-05 1.16781e-05 6.37941e-06 5.97668e-06 3.67933e-06 5.15242e-08 2.12167e-08 1.48281e-08 1.29485e-08 6.05905e-09 5.08135e-09 1.10776e-09 7.04404e-10 5.05452e-10 4.77257e-10 3.55868e-10 1.6189e-10 1.26192e-10 7.9126e-11 3.4504e-11 1.47793e-11 7.27596e-12 3.63798e-12 9.09495e-13 9.09495e-13 4.54747e-13 4.54747e-13 5.68434e-14 5.68434e-14 5.68434e-14 1.42109e-14 1.42109e-14
threshold=0.57206187370790162 0.0580571733880485 -0.28649238586104242 0.43639824507994057 0.024875376364544947 0.46351048430839525 0.075865426696429664 0.5097757602421279 -0.34978474507412494 0.66775046251831471 0.054917976914729702 -0.39644583908052927 -0.058128825287666032 0.19127121113335474 0.75950929042166415 0.31845408838854383 0.49020581264037194 -0.33181977021761755 0.26430922052831052 -0.024365672347512687 -0.29992064090604115 0.27340377319924253 -0.43613645872866408 0.85651637869522357 0.11559727125532041 0.76016641125591844 -0.51986790914795222 -0.13478364570270576 -0.51316249982713635 -0.21792040869160337 -0.22176109912333147 0.055617886056343657 -0.0074624454375475787 -0.86463000286968317 0.29879716260176176 -0.92275374213917394 0.48469353866348452 0.33032506254623178 -0.60419690757548306 -0.11829323186180894 0.1201501922676987 -0.63842444076100546 0.53503034712609077 -0.49215171637448801 0.25435310067270073 -0.53176024910631836 0.27611965541022315 0.075871424741306842 0.89362970791789875 0.57628787946735027 -0.36477337105417201 0.18823975386236005 0.41977740611853026 0.89362970791789875 0.27340377319924253 0.062436859542241048 0.2903980248057571 -0.40681706665938794 -0.14671477366898225 0.22091533507444203 -0.10022940530173241 0.25744392635769198 0.38758798976779968 0.35672139418104226 -0.48916892065019946 0.30996809451414936 -0.089895006389177787 0.25020427467205303 -0.7228321114779751 -0.92275374213917394 0.082859124756676436 0.10145186392946404 0.2444225586727182 0.16587804007876919
decision_type=2 2 2 2 2 2 2 2 2 2 2 2 2 2 2 2 2 2 2 2 2 2 2 2 2 2 2 2 2 2 2 2 2 2 2 2 2 2 2 2 2 2 2 2 2 2 2 2 2 2 2 2 2 2 2 2 2 2 2 2 2 2 2 2 2 2 2 2 2 2 2 2 2 2
left_child=1 4 25 28 5 11 42 60 -4 23 24 12 55 -11 19 -16 17 34 -19 20 -13 -21 29 31 38 26 39 69 45 30 66 58 41 46 -10 -31 40 -37 -5 72 -14 -29 -7 -43 73 -3 -34 53 63 -47 -8 70 56 54 64 -1 62 -38 -9 -58 -6 -44 -49 -40 -30 -36 -18 -32 -52 -28 -25 -51 -2 -27
right_child=2 3 8 10 7 6 50 9 16 13 -12 14 36 -15 15 -17 22 18 -20 21 -22 -23 -24 51 -26 44 27 32 47 35 67 -33 33 -35 65 37 57 -39 48 -41 -42 43 61 -45 -46 49 -48 52 -50 71 68 -53 -54 -55 -56 -57 59 -59 -60 -61 -62 -63 -64 -65 -66 -67 -68 -69 -70 -71 -72 -73 -74 -75
leaf_value=0.024388825736702615 -0.010713733725218199 -0.010673610965985923 -0.010657659510054819 0.024399383564078257 -0.010657695071465197 -0.010669974632865214 0.024388697380301069 0.024388799126167135 0.024419197201233544 0.024468943453759537 -0.010674880999497257 -0.010637576504416284 -0.010674955066441377 -0.0069013214912068037 -0.010658249615830095 0.024388825736702615 0.024388697380301069 0.024388825736702615 0.0025800304878929267 -0.01064345336300131 0.019433704039653447 -0.010252927714340807 0.024016487274100422 0.024468814626792255 0.024513457510663444 -0.010713733725218199 -0.010657683264701933 -0.010686388380441695 -0.010657780073323828 0.024408262869777674 0.02441100668169504 0.024434528130028145 -0.010709518768517709 -0.010674795300856877 0.024388825736702615 0.024402655876991565 -0.010657743078981574 0.024388825295167033 0.024388825736702615 -0.010696565968619036 -0.010668037592959041 -0.010679668822363198 -0.010657659510054819 -0.010674809058547761 -0.0107076601391715 -0.010668325613492369 -0.010713733725218199 -0.010657695071465197 0.024388697380301069 -0.010668410311606858 0.024388825736702615 0.024468943453759537 -0.010657547041393567 -0.010657802755225881 -0.010657745584716225 0.024388776368766584 -0.010657695071465197 -0.01065779235937101 0.024388825736702615 -0.010657717753870415 -0.010657716336224077 -0.010657672845622133 -0.010657702268781601 0.024388825736702615 -0.01065778394585333 0.024388825736702615 0.024388697380301069 0.02441100668169504 0.024388825736702615 -0.010657683131994803 0.024468814626792255 -0.010668410311606858 -0.010713733725218199 -0.010713733725218199
leaf_weight=105.05564510822296 22.678443074226379 22.28539976477623 51.707622528076172 48.8248271048069 82.009779363870621 22.274682760238647 113.00613415241241 23.28261661529541 23.550190687179565 28.908432304859161 37.055525183677673 4347.5754561722279 302.57628318667412 76.126602649688721 26.411817342042923 26.121944189071655 452.59240663051605 36.627508699893951 113.51354241371155 314382.06286716461 103.83342543244362 6649.1764602065086 26.402014553546906 23.5235975086689 31.709768801927567 22.678443074226379 237.13298070430756 25.390516638755798 1187.3477887809277 38.030267059803009 301.38566815853119 23.825607538223267 47.571724653244019 111.72258251905441 1037.779413163662 51.659731894731522 26.13208669424057 132261.65131872892 8658.8566303253174 26.540598392486572 164.79453000426292 49.901944935321808 151.5088939666748 5424.2661557495594 23.220583617687225 460.16131335496902 36.677482008934021 1031.9332237243652 130.61010479927063 149.21305727958679 231.69028759002686 113.36640119552612 22.795502156019211 220.17847609519958 61.994225323200226 25.838039219379425 30.023919224739075 33.360329270362854 1252.1497160196304 133.99604171514511 22.240002751350403 22.239876091480255 28.911949753761292 510.79758256673813 22.79619961977005 63.317321240901947 698.48012566566467 103.29979586601257 26.405878365039825 49.761785268783569 30.325601607561111 226.04664647579193 34.157655000686646 45.076905369758606
leaf_count=370 81 80 186 172 295 80 398 82 83 102 133 15633 1086 272 95 92 1594 129 405 1130069 371 23914 93 83 112 81 853 91 4271 134 1062 84 170 401 3655 182 94 465818 30496 95 592 179 545 19469 83 1653 131 3712 460 536 816 400 82 792 223 91 108 120 4410 482 80 80 104 1799 82 223 2460 364 93 179 107 812 122 161
internal_value=0 -0.00945591 0.0228319 0.0146013 -0.0104093 -0.0105693 0.0122747 0.0207971 0.0243571 0.0228838 0.0242513 -0.010609 -0.00369397 0.00173261 -0.010623 0.0067686 0.0243705 0.0224474 0.00790037 -0.0106258 -0.00993613 -0.0106354 0.0243888 0.0243987 0.0243893 -0.0106756 -0.0106751 -0.0106746 -0.0106603 0.0243889 0.0243945 0.0243897 -0.0106754 -0.0106905 0.0243895 0.0243888 -0.0106709 0.0243888 0.0243889 -0.0107083 -0.0106725 -0.0106749 -0.0106591 -0.0106749 -0.0107122 -0.0106685 -0.0107114 -0.0106577 0.0243888 -0.0106684 0.0243888 0.0244689 -0.0106577 -0.0106578 -0.0106578 0.0243888 -0.0106577 -0.0106578 0.0243888 -0.0106577 -0.0106577 -0.0106577 -0.0106577 0.0243888 -0.0106578 0.0243888 0.0243887 0.024411 0.0243888 -0.0106577 0.0244688 -0.0106684 -0.0107137 -0.0107137
internal_weight=0 341451 141417 13015.5 328436 326760 567.126 1675.76 135260 1571.51 9417.85 326193 657.757 105.035 325535 52.5338 135208 1274.79 150.141 325483 4451.41 321031 133934 1466.47 9380.8 6156.78 6065.8 5982.43 3597.68 133907 1555.76 1299.26 5695.53 195.972 1124.65 132351 526.863 132313 9349.09 83.3767 467.371 5499.56 196.023 5474.17 90.9759 857.706 84.2492 2739.98 9300.26 835.421 371.102 167.216 1247.66 1492.32 1272.14 130.894 1224.87 59.4924 1275.43 164.02 104.25 173.749 1060.85 9169.65 1210.14 1101.1 1151.07 404.685 258.096 286.895 53.8492 375.26 56.8361 67.7553
internal_count=1725047 1226563 498484 46109 1180454 1174539 2012 5915 476388 5540 33172 1172527 2353 374 1170174 187 476202 4495 534 1169987 16004 1153983 471707 5166 33039 22096 21771 21473 12937 471614 5480 4576 20441 702 3961 466134 1892 466000 32927 298 1678 19739 705 19648 325 3081 301 9856 32755 3001 1307 590 4488 5368 4576 461 4406 214 4492 590 375 625 3816 32295 4353 3878 4054 1426 909 1032 190 1348 203 242
is_linear=0
shrinkage=0.01


Tree=6
num_leaves=60
num_cat=0
split_feature=48 53 60 46 1 21 60 22 51 34 49 14 1 17 51 54 2 20 6 21 26 62 62 19 15 60 3 50 38 59 21 9 18 14 53 53 17 63 53 6 11 17 3 17 58 4 41 60 0 8 0 2 0 1 0 9 1 0 4
split_gain=597699 385291 29815.2 26818.8 18730.2 14500.6 41782.9 10474.3 5609.85 3240.79 1635.97 13487.5 869.793 736.996 528.954 7905.07 342.398 262.17 29.9999 15.2439 0.613069 0.445075 0.181656 0.174825 0.138736 0.0731972 0.17357 0.0261297 0.0548289 0.0143072 0.000116754 3.19713e-05 1.47637e-05 1.10072e-05 3.01094e-06 2.83332e-06 7.30288e-07 7.12727e-07 5.28908e-07 4.08954e-07 3.16421e-07 2.87728e-07 2.32587e-07 9.93641e-08 2.40843e-08 3.69959e-09 3.65233e-10 8.54925e-11 6.04814e-11 1.74438e-11 3.63798e-12 1.81899e-12 4.54747e-13 2.84217e-14 1.42109e-14 1.42109e-14 7.10543e-15 3.55271e-15 1.77636e-15
threshold=0.35410295899922101 0.45201794078693441 -0.70060562752012312 0.45956934328346155 0.13086618735447433 -0.21792040869160337 -0.378835243481004 -0.51234078521832249 0.13348939124601608 0.11910099716776809 0.89362970791789875 0.050303714936349699 0.12235743943835538 0.44595251124990548 0.21482686481388322 -0.069567037047339422 0.096218470144391138 0.64948535446015454 -0.72383326250543145 -0.22176109912333147 -0.28988025840575049 -0.15437878246147904 0.10363646392568383 0.59687126071782293 0.025372980695830768 -0.26560442924219113 0.60279617790739126 0.50558915595908582 0.61156948133018429 -0.0055071143329213637 -0.22176109912333147 0.66227490519668974 -0.22106756817008932 0.16602525391820672 0.51319143851810833 0.54482302025532092 0.57206187370790162 0.063140923831058945 0.50594273339493878 -0.87823529103094378 0.014058818077467327 0.59037405734336812 0.63968592703744276 0.57568431360549455 0.13959275651867301 0.68713930445190707 -0.11643342077153275 1.0000000180025095e-35 0.24761332531431726 0.017143803832039794 0.20938012134569098 -0.29864085586702233 0.088273457352521831 0.52321736018738974 -0.05238444885532665 0.48535663880689117 1.0000000180025095e-35 0.28927372219425612 0.40801859799418916
decision_type=2 2 2 2 2 2 2 2 2 2 2 2 2 2 2 2 2 2 2 2 2 2 2 2 2 2 2 2 2 2 2 2 2 2 2 2 2 2 2 2 2 2 2 2 2 2 2 2 2 2 2 2 2 2 2 2 2 2 2
left_child=1 13 31 5 32 6 12 18 17 23 14 35 -4 33 15 -10 -16 22 -5 36 -21 -8 -7 25 -20 27 -27 28 -6 -29 34 41 -3 37 -23 -12 -14 44 -32 -11 45 -2 -34 50 47 -9 -42 48 -1 -46 -26 -13 -24 -49 -44 -48 -51 -47 -41
right_child=2 4 3 7 9 8 21 40 10 39 11 51 19 -15 16 -17 -18 -19 24 20 -22 30 52 -25 43 26 -28 29 -30 -31 38 -33 42 -35 -36 -37 -38 -39 -40 58 46 -43 54 -45 49 57 55 53 -50 56 -52 -53 -54 -55 -56 -57 -58 -59 -60
leaf_value=-0.0081134200052335181 0.088851126495926608 -0.0081284073637936435 -0.0081135953354022523 0.06945666984946669 0.088903624633362155 0.090271406108639513 -0.0058741299043159161 -0.0081146669208230146 0.08463872592884672 -0.0081122440113107971 -0.0081134197612231698 0.088850414676287723 0.088851125991801394 0.081958794757118092 -0.0080533155681219836 -0.0081148329893653663 0.022318205504330276 0.029206132259271086 0.090082949880358823 0.096901345177202391 0.093944735245800201 -0.0081134441650924493 0.088851126495926608 0.090295433042841891 0.088851126495926608 0.08885112649592658 0.090480806977615902 0.088852261061656446 0.089792657871664558 0.089243804537938218 -0.0081208306952007085 0.088869629087585764 -0.0081134163882889826 -0.008123372259337262 -0.0081144543581938271 -0.0081144303829810902 0.088850414676287723 -0.0081165093836139523 -0.0081219286835771658 -0.0081144199792231048 -0.0081134679989318843 0.088850414676287723 -0.0081149912169470716 0.088850414676287723 -0.0081136094443743697 -0.0081144199792231083 -0.0081134142825412311 -0.0081134249450160404 -0.0081134142825412311 -0.0081135953354022523 0.088851126495926608 0.088850414676287723 0.088851126495926608 -0.0081134249450160404 -0.0081149912169470716 -0.0081134142825412311 -0.0081135953354022523 -0.0081144199792231048 -0.0081144199792231083
leaf_weight=5985.9801744818687 74.297288723289967 8.4567770808935148 9.3208491802215558 8.1138089224696142 29.352807857096195 10.96985701471567 8.9119888395071012 7.5610682070255271 98.248115509748459 17.676486745476723 880.14028245210648 37.097388803958893 291.00630295276642 9.0966074988245946 137236.95327164233 1418.7240562736988 37.129192620515823 8.2966706752777082 9.362520866096018 21.612763673067096 10.382305197417734 1087.4221431910992 8.9651374742388708 8.4285358861088735 313.57371648401022 21.846082121133808 9.3250116556882841 11713.589112870395 9.0838383138179761 9.339847616851328 61.567282676696777 9.0664709806442243 9.8776549994945508 11.144529327750204 404.91180787235498 405.08505371212959 286.37123190611601 7.4866389110684386 152.64023225754499 8.1183814778924006 14.444761723279951 240.92693062126637 101.1395333558321 20.712708748877048 10.066711843013762 18.289687007665634 17.33244189620018 120.49018004536629 190.37730534374714 9.7868916392326337 54.82130041718483 124.37930079549551 41.322070427238941 228.49336540699005 84.329638615250587 84.984876394271851 57.882473409175873 12.410859040915968 8.7715845853090268
leaf_count=64237 721 89 100 79 285 108 95 81 958 190 9445 360 2824 89 1471072 15195 397 84 92 227 106 11669 87 83 3043 212 92 113673 89 91 654 88 106 118 4339 4341 2779 80 1619 87 155 2338 1083 201 108 196 186 1293 2043 105 532 1207 401 2452 903 912 621 133 94
internal_value=0 0.0532224 -0.00692573 -0.00714262 0.0869358 -0.00741416 0.0173057 0.0618257 -0.0078254 0.0885725 -0.00786993 0.00270912 0.0877567 -0.00798987 -0.0079802 -0.00210756 -0.0080451 0.0819604 0.0884924 0.0892231 0.0959419 -0.00810307 0.0891055 0.0888557 0.08888 0.0888547 0.0893387 0.0888534 0.0891137 0.0888526 -0.00811471 0.0888511 -0.00811547 -0.00811344 -0.00811372 -0.00811374 0.0888508 -0.00811343 -0.00812161 -0.00811331 -0.00811368 0.0888506 -0.00811491 0.0888511 -0.00811342 -0.00811447 -0.00811342 -0.00811342 -0.00811342 -0.0081136 0.0888511 0.0888504 0.0888511 -0.00811342 -0.00811499 -0.00811341 -0.0081136 -0.00811442 -0.00811442
internal_weight=0 18670.1 143527 143203 12039.3 142641 2334.15 561.608 140307 11835.5 140238 1446.7 618.693 6630.8 138791 1516.97 137274 69.5537 406.584 609.373 31.9951 1715.45 61.2571 11801 398.47 11792.5 31.1711 11761.4 38.4366 11722.9 1706.54 324.291 203.804 6621.71 1492.33 1285.23 577.378 6610.56 214.208 34.5665 155.024 315.224 195.347 389.108 6603.08 38.2616 116.762 6525.34 6176.36 77.7361 368.395 161.477 50.2872 348.984 185.469 102.317 67.6694 30.7005 16.89
internal_count=1725047 188223 1536824 1533677 117077 1528067 24412 5610 1503655 114896 1502975 15353 6036 71146 1487622 16153 1471469 680 3947 5936 333 18376 596 114525 3868 114442 304 114138 374 113764 18281 3147 2181 71057 16008 13786 5603 70939 2273 371 1663 3059 2092 3776 70859 410 1253 70025 66280 834 3575 1567 488 3745 1986 1098 726 329 181
is_linear=0
shrinkage=0.01


Tree=7
num_leaves=73
num_cat=0
split_feature=53 30 63 17 2 0 0 1 8 49 0 53 11 46 3 16 58 32 34 46 0 0 18 12 61 53 35 58 59 27 19 23 43 32 14 1 38 53 20 7 23 13 0 31 20 3 18 21 23 17 51 17 7 39 2 18 25 3 0 3 55 23 0 2 0 1 0 3 0 56 0 41
split_gain=1.0039e+06 142583 56298.8 17591.2 10972.7 3889.54 3794.57 3685.87 2951.15 1965.4 1582.92 1360.48 1189.08 984.524 1381.96 475.938 286.648 2034.15 254.741 225.474 226.833 115.329 46.3222 49.5607 12.6379 212.185 13.5526 11.5148 3.79882 0.146577 0.00496697 0.00100201 0.000949395 0.000691886 0.000455884 0.000363529 0.00025566 0.000181861 9.00811e-05 5.03771e-05 2.56513e-05 1.4276e-05 1.33227e-05 1.05253e-05 6.92968e-06 1.70923e-06 1.70732e-06 3.88201e-07 4.48126e-08 3.50599e-08 3.17814e-08 2.58083e-08 1.20644e-08 1.10813e-08 7.7016e-09 3.93743e-09 3.99557e-09 3.49792e-09 2.27658e-09 1.18303e-09 3.56522e-10 1.38243e-10 1.81899e-12 4.54747e-13 2.27374e-13 2.27374e-13 1.13687e-13 1.13687e-13 5.68434e-14 5.68434e-14 2.84217e-14 1.42109e-14
threshold=0.51319143851810833 0.20502946245615283 -0.046912456352309104 0.54060589891488542 -0.45418511605712719 0.0081418688414989209 0.24761332531431726 0.26898491169764965 -0.14995964958336597 0.36861986398177082 0.059360616026848334 0.3892429183558811 0.26873444931401763 0.45956934328346155 0.56493132310947936 -0.19905232970655837 0.17056674652747703 0.43580608904370033 0.082310873750368649 0.17575574689220169 0.26430922052831052 0.23837843218809415 -0.40681706665938794 0.11471396672468613 0.4712915453510737 0.57010668361450068 0.28478293464309579 0.13679502479719133 0.0047778995333097951 -0.49684886862717603 0.5067190249121305 -0.046291923339001888 -0.16918190518381693 0.27340889961369952 -0.21778170870064809 0.59750116998040503 -0.024365672347512687 0.45497405678069947 0.3281162103813825 0.060275480948745748 0.056263389048606866 0.3544259070483855 0.16781388386556895 0.24822085970685012 0.30240769983808075 0.54315929476212921 -0.33411185666354998 0.2354094124424552 0.46351048430839525 0.57206187370790162 0.21482686481388322 0.57206187370790162 0.1465235085332188 -0.24147072252534443 -0.41776609594140512 -0.35493676896097498 -0.5117727265447537 0.53504902565874912 -0.056800875812142257 0.54980121856064745 -0.07505740339010708 0.089808073653412548 -0.039335709147507093 -0.087904718740069498 0.062436859542241048 0.46446574011911373 -0.22947965072989196 0.53849197134794957 0.21246127053489297 -0.30378281329786799 0.28399880213549961 0.11391049097981622
decision_type=2 2 2 2 2 2 2 2 2 2 2 2 2 2 2 2 2 2 2 2 2 2 2 2 2 2 2 2 2 2 2 2 2 2 2 2 2 2 2 2 2 2 2 2 2 2 2 2 2 2 2 2 2 2 2 2 2 2 2 2 2 2 2 2 2 2 2 2 2 2 2 2
left_child=2 10 3 6 28 49 13 54 -3 67 36 44 15 16 64 24 22 29 -19 20 42 -12 23 -1 26 -26 -11 -24 31 -18 32 -4 41 35 -33 38 62 -35 -13 40 -36 -21 -7 -39 -6 -46 -16 -40 50 57 -38 -41 55 -34 -8 56 -9 -5 -14 66 -52 -62 -2 -56 -15 -57 -51 -10 -48 -69 71 -23
right_child=1 8 4 5 11 19 7 52 9 12 21 33 58 14 46 -17 17 18 -20 30 -22 70 27 -25 25 -27 -28 -29 -30 -31 -32 34 53 37 39 -37 48 43 47 51 -42 -43 -44 -45 45 -47 68 -49 -50 59 60 -53 -54 -55 63 65 -58 -59 -60 -61 61 -63 -64 -65 -66 -67 -68 69 -70 -71 -72 -73
leaf_value=0.018992987512018202 0.018996899068747724 0.018992993376522011 0.019042044047399592 0.018992894141747679 0.018992914266253821 -0.012152342236005044 0.018992993376522011 -0.012176574869378594 0.018992993376522011 -0.012163932433893687 0.0010854962585507963 -0.012183065702108689 0.018992993376522011 0.018992894141747679 -0.012179120138472489 0.0187953149249162 0.018993103365026361 -0.010494586282490819 0.018994256921740647 -0.012183317786048115 0.0068058228566039583 -0.012176622228546543 0.018973486234762024 0.00051723232493938612 -0.0036726264300036386 -0.01215921287316001 -0.010527752441747419 0.018315400916629924 0.015098753030187153 0.018239648616203634 -0.012242164178471879 0.019036695953502703 -0.012159204627778555 -0.01220141914772576 0.019007223047002569 -0.012159203661105634 0.018992894141747679 -0.012169925652120526 -0.012165694281688495 0.018992987975755601 0.018996835814223879 -0.012176587096958473 -0.012159203661105634 -0.01217656077900503 0.018996789650789991 0.018999707269809905 -0.01217656077900503 -0.012164713992716836 0.018992842700775503 0.018992741689938874 0.018992956754123748 0.018992794785331522 -0.012176349287746744 -0.012159320813117418 0.018992894141747679 -0.01217656077900503 -0.012176713717985864 0.018992993376522011 0.018992894141747679 0.018992805696761785 0.018992974222780068 0.018992993374115034 0.018996899068747724 0.018992894141747679 0.018992894141747679 -0.01217656077900503 0.018992741689938874 0.018992993376522011 -0.01217656077900503 0.018992993376522011 -0.012176622228546543 -0.012176622228546543
leaf_weight=29.948442280292511 1576.0036207437515 305.21919870376587 46.473720610141754 161.21209710836411 45.559924066066742 45.679325312376022 88.889516115188599 49.519617706537247 122.97976064682007 315241.87172555923 126.94443488121033 29.973527520895004 30.904240369796753 196.89540714025497 29.652422666549683 49.698434174060822 2251.2260097265244 297.28581136465073 32.496491074562073 35.022341847419739 132.93990913033485 25.863809645175934 188600.45046702027 28.180782973766327 312.31003761291504 5198.5265083014965 507.05929639935493 2696.8566993772984 25.473141968250275 26.119301617145538 80.686405599117279 25.467609465122223 1665.5068380236626 30.632203876972198 26.436922281980515 974.72325432300568 331.66362270712852 25.53980353474617 6152.5553665757179 954.20833876729012 236.06630980968475 314.46553221344948 74.372676372528076 374.07787185907364 68.812909543514252 28.351943969726562 182.93858826160431 40.664046317338943 207.40943357348442 223.02131354808807 26.762452512979507 74.552765786647797 25.863458544015884 86.348445296287537 290.56409597396851 56.774044632911682 35.641752690076828 45.55985951423645 91.757082939147949 32.17875137925148 37.594862073659897 13135.257958978415 327.49782133102417 360.33771112561226 142.09603816270828 610.95180252194405 58.304143399000168 25.806633710861206 32.487369984388351 54.162070751190186 80.114727437496185 29.64875739812851
leaf_count=94 4947 958 146 506 143 145 279 157 386 1000092 400 95 97 618 94 156 7066 941 102 111 419 82 591969 89 988 16496 1607 8466 80 82 255 80 5285 97 83 3093 1041 81 19517 2995 741 997 236 1186 216 89 580 129 651 700 84 234 82 274 912 180 113 143 288 101 118 41228 1028 1131 446 1937 183 81 103 170 254 94
internal_value=0 -0.0106433 0.017274 0.0183897 -0.00696643 -0.00582612 0.0187547 0.00300833 -0.0120872 -0.0121167 0.0185847 -0.0115933 -0.0121363 0.0188776 0.00591392 -0.0121482 0.0189166 0.0156231 -0.00758878 -0.011129 -0.00219239 -0.00576484 0.0189615 0.010036 -0.012153 -0.0116783 -0.0121613 0.0189642 0.0189249 0.0189845 -0.0121652 0.0189964 -0.0121622 -0.0121656 0.0189948 -0.0121649 0.0189935 -0.0121779 -0.0121658 0.018994 0.0189979 -0.0121773 -0.0121566 -0.0121761 0.0189961 0.0189976 -0.0121769 -0.0121657 0.018993 0.0189928 0.018993 0.018993 -0.0121766 -0.0121592 0.0189929 -0.0121766 -0.0121766 0.0189929 0.0189929 0.0189927 0.018993 0.018993 0.0189969 0.0189929 0.0189929 -0.0121766 0.0189927 0.018993 -0.0121766 0.018993 -0.0121766 -0.0121766
internal_weight=0 337845 208180 199020 9159.57 2955.3 196065 1518.54 321940 321635 15904.8 7770.89 321432 194547 584.07 321309 193963 2607.13 329.782 2435.02 252.992 262.572 191355 58.1292 321260 5510.84 315749 191297 1388.68 2277.35 2182.03 1363.21 2101.34 7628.17 1316.73 7197.92 15642.2 430.25 6223.19 1291.26 262.503 349.488 120.052 399.618 142.725 97.1649 245.078 6193.22 13738.7 520.276 13531.3 1028.76 778.751 1751.86 739.791 752.887 85.1614 206.772 122.661 313.504 13199.6 13172.9 1903.5 650.902 338.991 667.726 281.325 202.948 215.426 79.9687 135.627 55.5126
internal_count=1725047 1071246 653801 624796 29005 9355 615441 4791 1021319 1020361 49927 24646 1019724 610650 1841 1019339 608809 8191 1043 7722 800 830 600618 183 1019183 17484 1001699 600435 4359 7148 6922 4279 6667 24198 4133 22834 49097 1364 19741 4053 824 1108 381 1267 448 305 777 19646 43122 1633 42471 3229 2469 5559 2322 2387 270 649 385 984 41430 41346 5975 2043 1064 2117 883 637 683 251 430 176
is_linear=0
shrinkage=0.01


Tree=8
num_leaves=66
num_cat=0
split_feature=63 27 27 34 58 1 4 48 58 4 17 51 53 43 0 52 22 14 35 2 60 34 20 25 30 42 21 48 24 58 39 62 40 18 8 5 22 30 47 12 48 49 14 62 54 19 40 59 6 0 0 48 2 3 2 4 5 35 22 0 18 0 2 4 0
split_gain=1.12375e+06 47321.8 23587.4 6258.35 2537.46 1221.3 96.633 67.9585 26.7885 67.5913 0.083531 0.0420615 0.00639679 0.00512272 0.00415071 0.00184497 0.00181108 0.00117287 0.000796769 0.000438651 0.000422533 0.000405043 0.000339306 0.000346404 0.000237083 0.00163886 0.000206619 0.000195488 0.000145906 0.000109793 0.00139322 7.69381e-05 5.96602e-05 4.64343e-05 2.35882e-05 2.33954e-05 1.26417e-05 9.03253e-06 4.55467e-06 4.14605e-06 3.43538e-06 3.33872e-06 1.55088e-06 1.29997e-06 1.15951e-06 3.47526e-07 2.22368e-07 6.7148e-08 1.20272e-08 1.12597e-08 1.96924e-09 8.97046e-10 7.7398e-10 6.58616e-10 4.34909e-10 2.51021e-10 6.09361e-11 1.22498e-11 8.36309e-12 3.63798e-12 1.13687e-13 5.68434e-14 5.68434e-14 5.68434e-14 7.10543e-15
threshold=0.044146264546920888 -0.31499254258422288 -0.084271294380839162 -0.14252584472284183 0.37461235083417338 0.28652274756312079 0.36200290753043668 0.32525929107724555 0.041086879864793709 0.47359273511988798 0.42817253332949995 0.33527534556859806 0.4474623672055783 -0.22504013083610666 0.24761332531431726 0.61599819583783899 -0.45928940296981163 -0.081171975165231933 0.28478293464309579 0.069264953715138564 -0.60070081456738544 0.12029595019857221 0.58013523479874729 -0.48610128532773722 0.68825633421479615 -0.040035450385148226 -0.21792040869160337 0.33642042507135855 -0.59294576400263976 0.13679502479719133 -0.19752216673449649 0.36319185635899193 -0.18961238909370023 -0.40681706665938794 0.28531111786505886 -0.627607562181977 -0.57803022254359837 0.55445989048463107 -0.65334405250580752 0.06249577285447365 0.3473362654315974 0.59458420623217068 0.019848806326364443 0.14560790611292118 0.10113590419209841 0.51046906108987067 0.24584190748264248 -0.086559123541853272 -0.48290821638458825 -0.20352696337735757 0.15145167097455295 0.30581648306581272 -0.058128825287666032 0.32335050367174051 -0.41776609594140512 0.38417368181075306 -0.72290944384193156 0.19148360518864346 -0.47437163007451427 0.2203892413091674 -0.17177328814143328 0.32500736546943859 -0.12228030605290686 0.36684996008646886 0.12773298340195149
decision_type=2 2 2 2 2 2 2 2 2 2 2 2 2 2 2 2 2 2 2 2 2 2 2 2 2 2 2 2 2 2 2 2 2 2 2 2 2 2 2 2 2 2 2 2 2 2 2 2 2 2 2 2 2 2 2 2 2 2 2 2 2 2 2 2 2
left_child=2 6 4 45 10 52 -2 -3 9 -9 14 21 35 15 20 -14 32 34 19 24 36 22 28 -24 26 -26 -10 -15 -12 33 -31 37 -16 -22 -8 40 42 38 43 -23 -13 -34 -1 -19 60 51 48 -40 55 -20 53 56 -6 64 -18 63 -4 -41 -53 -57 -36 -56 -58 -5 -7
right_child=1 7 3 46 5 50 17 8 18 -11 11 12 13 27 16 -17 54 31 49 -21 29 39 23 -25 25 -27 -28 -29 -30 30 -32 -33 41 -35 44 -37 -38 -39 47 57 -42 -43 -44 -45 -46 -47 -48 -49 -50 -51 -52 58 -54 -55 61 59 62 -59 -60 -61 -62 -63 -64 -65 -66
leaf_value=-0.0097700447512195174 0.013475749538603272 0.011295098879491785 -0.0097478095468226163 0.029818774559978858 0.029818795845266168 -0.0097700438865290021 -0.0097474322157907883 0.029818795845266168 0.029831954246009883 0.0088181132339282386 -0.0097758334511445274 -0.0097440584132927627 -0.0098199506465985985 -0.0097360398173128287 -0.0097865158430538897 -0.0097706238880569379 -0.0097477538879800641 -0.0097746929084226025 0.029855299301408435 0.02986153375330754 -0.0097601672324190043 -0.0097528436780492649 -0.0097745129793616881 -0.0098208268173365885 0.029914984198225473 0.029818361853923447 0.029818807887282386 -0.0097565021242295019 -0.0097700829501482754 -0.0097485532226812676 -0.0097860180036452409 -0.0097896103891872387 -0.009773269231101429 -0.0097478004479049103 -0.0097565047385850066 -0.009758452799089979 -0.0097631862798806552 -0.0097641017922077029 -0.0097705734652737981 -0.0097565047385850066 -0.0097478023064567574 -0.0097700458878148041 -0.0097734056563180925 -0.0097717168030024507 -0.0097589485923726543 -0.009749194716344391 0.029819795619156004 -0.0097700418526026657 0.029818589487904352 0.029855588310889084 -0.0097699513510058761 -0.0097477891639023463 0.029818731730413758 -0.009770099058954939 -0.0097477814302680422 0.029818795845266168 -0.0097478276896454368 -0.0097564987410701399 -0.0097477814302680422 0.029818795845266168 -0.0097565047385850066 -0.0097477814302680422 -0.0097478276896454368 0.029818774559978858 -0.0097700438865290021
leaf_weight=49.227942690253258 17.991325855255127 19.819004163146019 19.398105815052986 23.092906355857849 219.63351592421532 28.300113573670387 29.331065952777863 53.967092484235764 119.69656389951706 21.404351070523262 449.12245066463947 24.57988415658474 78.90966759622097 46.706477582454681 22.678970068693161 1941.050483122468 65.999978631734848 22.141055569052696 39.125708699226379 24.074015974998474 30.368032783269882 38.606116592884064 41.423029005527496 26.469041213393211 20.288293063640594 130.27530401945114 99531.356325864792 121682.67418400943 25096.000290393829 5155.6012533009052 101.20859704911709 20.305654227733612 33.081425204873085 143301.96211610734 691.25017458200455 20.632882252335548 29.915922671556473 25.172869399189949 24.022355079650879 106.43735541403294 8513.6246004253626 1122.2546320706606 19.040266305208206 43.537495732307434 19.923927396535873 19.167837977409363 22.339368730783463 2175.5405209958553 28.86625149846077 20.565945684909821 19.024872779846191 24.365794509649277 20.582827568054199 32.819045126438141 344.66889986395836 1557.2643803358078 22.000386446714401 50.01837432384491 32.881933480501175 255.2768979370594 67.797513693571091 91.78554093837738 387.01755082607269 33.886329978704453 35.196779906749725
leaf_count=207 74 81 82 92 875 119 124 215 477 88 1886 104 328 198 95 8161 279 93 156 96 128 163 174 110 81 519 396524 513312 105526 21790 424 85 139 605770 2916 87 126 106 101 449 35989 4719 80 183 84 81 89 9148 115 82 80 103 82 138 1457 6204 93 211 139 1017 286 388 1636 135 148
internal_value=0 0.0286108 -0.00947865 0.0215838 -0.00972261 0.0169764 -0.0096333 0.0298107 0.0298144 0.0238549 -0.00975338 -0.00975846 -0.00975618 -0.00975676 -0.00974805 -0.00977255 -0.00976367 -0.0097666 0.0298189 0.0298189 -0.00974787 -0.00977013 -0.00977024 -0.00979257 0.0298188 0.0298314 0.0298188 -0.00975649 -0.00977018 -0.00974786 -0.00974927 -0.00977023 -0.00977045 -0.0097478 -0.00975624 -0.00974782 -0.00976861 -0.00977006 -0.00977013 -0.00975578 -0.00974779 -0.00977014 -0.00977098 -0.00977272 -0.00975657 -0.00974787 0.0298188 -0.00977005 0.0298188 0.0298554 -0.00977004 -0.00974782 0.0298188 -0.00977006 -0.00974778 0.0298188 -0.00974783 -0.0097565 -0.00974778 0.0298188 -0.0097565 -0.00974778 -0.00974783 0.0298188 -0.00977004
internal_weight=0 103118 311265 2425.56 308840 355.557 3137.01 99980.6 99960.8 75.3714 308484 158116 132308 123749 150368 2019.96 1680.47 3119.02 99885.4 99825.7 148687 25808.1 25613 67.8921 99801.6 150.564 99651.1 121729 25545.1 148589 5256.81 2310.72 1178.02 143332 808.303 8558.84 98.1841 2290.41 2265.24 195.062 8538.2 1155.34 68.2682 65.6786 778.972 504.832 1920.73 2199.56 1898.39 59.6917 115.341 485.664 240.216 96.3159 502.454 1869.52 428.416 156.456 57.2477 1812.54 759.048 436.454 409.018 56.9792 63.4969
internal_count=1725047 411519 1313528 9786 1303742 1442 13200 398319 398238 303 1302300 666698 558179 521999 635602 8489 7077 13126 397935 397697 628525 108519 107696 284 397601 600 397001 513510 107412 628112 22214 9716 4953 605898 3410 36180 413 9631 9525 823 36093 4858 287 276 3286 2134 7652 9249 7563 238 485 2053 957 405 2124 7448 1811 660 242 7221 3202 1845 1729 227 267
is_linear=0
shrinkage=0.01


Tree=9
num_leaves=78
num_cat=0
split_feature=17 59 60 17 60 23 0 17 0 13 14 18 2 0 33 0 53 22 0 38 25 14 43 52 3 35 0 53 16 59 11 37 23 5 51 21 21 51 11 39 40 56 10 24 46 2 2 1 59 49 24 2 10 13 32 0 49 14 8 37 4 0 17 2 12 8 21 22 17 0 2 2 5 5 2 14 0
split_gain=1.01247e+06 76881 69447.6 30550.1 16057.6 2916.88 1518.74 1055.74 606.931 482.846 435.703 312.047 1254.94 201.138 156.897 155.969 44.7037 341.613 126.319 21.674 897.319 10.1386 0.035816 0.0345249 0.00492451 0.00447987 0.00338952 0.00363062 0.0028299 0.00181153 0.00133489 0.000801258 0.000684654 0.000540016 0.000488875 0.00044666 0.00136196 0.000363235 0.000195782 0.000495873 0.000188648 0.000142662 0.00011679 4.946e-05 2.49905e-05 2.34996e-05 2.05743e-05 1.03812e-05 5.18548e-08 4.66389e-08 3.58932e-08 3.55317e-08 1.91387e-08 1.43366e-08 1.12414e-08 1.0554e-08 3.62388e-09 2.87787e-09 2.20905e-09 1.61731e-09 1.59707e-09 1.16688e-09 4.27406e-10 2.67946e-10 1.32815e-10 7.95808e-11 4.95675e-11 1.06866e-11 8.61178e-12 9.09495e-13 1.13687e-13 1.13687e-13 1.13687e-13 1.13687e-13 5.68434e-14 2.84217e-14 1.42109e-14
threshold=0.57206187370790162 0.0580571733880485 -0.28649238586104242 0.43639824507994057 0.024875376364544947 0.46351048430839525 0.075865426696429664 0.5097757602421279 -0.34978474507412494 0.66775046251831471 0.054917976914729702 -0.39644583908052927 -0.058128825287666032 0.19127121113335474 0.75950929042166415 0.31845408838854383 0.49020581264037194 -0.33181977021761755 0.26430922052831052 -0.024365672347512687 -0.29992064090604115 0.27340377319924253 -0.22156590872777776 0.85651637869522357 0.76016641125591844 0.11559727125532041 -0.13478364570270576 0.48257318742437366 -0.51316249982713635 0.055617886056343657 0.010332503160943753 0.40874589707491998 0.23037263237768657 -0.92275374213917394 0.4639685113928958 -0.21792040869160337 -0.22176109912333147 0.33032506254623178 -0.016911940279727672 -0.5672382631686228 0.1201501922676987 -0.63842444076100546 0.53503034712609077 -0.60419690757548306 0.25435310067270073 -0.53176024910631836 0.096218470144391138 0.23778826514715234 0.075871424741306842 0.89362970791789875 -0.69948613871872656 -0.36477337105417201 0.41977740611853026 0.57628787946735027 0.34141605504798817 0.18823975386236005 0.89362970791789875 0.27340377319924253 0.16406300008649313 0.2903980248057571 0.72811129956934117 0.34204178679707758 0.22091533507444203 -0.10022940530173241 0.25744392635769198 0.2118239706616204 0.38758798976779968 -0.48916892065019946 0.58265484773755816 0.30996809451414936 -0.25923731834243452 -0.25362636110425146 -0.55762923749590321 -0.59187083684175212 -0.52475663692181407 -0.12981448753817415 -0.05025016387200492
decision_type=2 2 2 2 2 2 2 2 2 2 2 2 2 2 2 2 2 2 2 2 2 2 2 2 2 2 2 2 2 2 2 2 2 2 2 2 2 2 2 2 2 2 2 2 2 2 2 2 2 2 2 2 2 2 2 2 2 2 2 2 2 2 2 2 2 2 2 2 2 2 2 2 2 2 2 2 2
left_child=1 4 24 28 5 11 42 63 -4 23 25 12 58 -11 19 -16 17 31 -19 20 -13 -21 -18 29 26 43 70 46 45 60 38 50 -32 -24 40 36 -35 -37 41 -40 -14 -29 -7 -5 68 -3 -28 -36 56 54 -10 -8 59 -47 -45 -25 57 67 -1 66 -9 71 -61 76 75 -60 -50 -30 -26 -52 -2 -53 -57 -63 -55 -44 -6
right_child=2 3 8 10 7 6 51 9 16 13 -12 14 34 -15 15 -17 22 18 -20 21 -22 -23 33 55 44 -27 27 30 48 -31 32 -33 -34 35 47 37 -38 -39 39 -41 -42 -43 64 49 -46 53 -48 -49 52 -51 69 61 -54 74 -56 72 -58 -59 65 62 -62 73 -64 -65 -66 -67 -68 -69 -70 -71 -72 -73 -74 -75 -76 -77 -78
leaf_value=0.023802993860797511 -0.010603521343604243 -0.010634632675939771 -0.010603479400643925 0.023813073061251272 -0.010603548360104837 -0.010627872568930514 0.023802862517088172 0.02380304881949245 0.023802716769489522 0.023956463987793955 -0.010637068123635627 -0.01058383782302549 -0.010637276858447951 -0.0068979882195413858 -0.010604553125317081 0.023803048525597236 0.023444876293223282 0.023803091428406305 0.002555428184376634 -0.010594398064977155 0.019000745632947982 -0.010198465549799137 0.023838874216224656 0.023956294950775333 -0.010714391617568875 0.02392136315040844 -0.010714531499936087 -0.010660703800240669 -0.010603632340213828 0.02389051592529556 -0.010644812047909388 0.0238616597479442 -0.010714380974164777 0.023802961464751471 -0.010610726618832516 0.023829399936762998 0.023824187162508809 0.023803050504139108 -0.010674344143718354 -0.010636987939265126 -0.01062349068708562 -0.010637034275212369 -0.010603478320956516 0.023803048521818068 -0.010702365006846055 -0.010624163921011263 -0.01070372148231599 -0.010602647252626923 -0.010603548360104837 0.023802862517088172 0.023803091428406305 0.023803091428406305 -0.010603259773372578 -0.010624247443042549 0.023803091428406305 0.023956463987793955 -0.010603673152144187 -0.010603562367780237 0.023803091428406305 -0.010603548360104837 0.023803091299180856 0.023803048525597236 -0.01060359025264093 -0.01060358763437147 -0.010603504585787786 0.023803070241823928 -0.010603561652980717 -0.010603639308137441 -0.010714384130975139 0.023803091428406305 -0.010603521359120153 0.023803091428406305 0.023956463987793955 0.023803048525597236 -0.010624247443042549 -0.010603478320956516 -0.010603548360104837
leaf_weight=35.104599177837372 256.15479245781898 22.173267334699631 51.341081857681274 49.480309844017029 54.653911292552948 22.152164936065674 114.52190464735031 1197.0077829957008 26.184743076562881 29.247668981552124 36.874970674514771 4317.1574322581291 301.10654604434967 76.105145454406738 26.226354748010635 26.472287654876709 27.910929769277573 37.118716567754745 113.64413917064667 312377.5336381793 105.01556977629662 6604.2375075221062 42.263497948646545 54.481161534786224 44.240584075450897 32.140051394701004 39.761210501194 25.584246724843979 1178.9366211891174 24.122306227684021 24.144926875829697 23.850718528032303 34.160400092601776 1180.3211081624031 22.932380884885788 52.337791293859482 406.38489320874214 134020.55427205563 50.425235092639923 120.32758569717407 148.06715026497841 5425.3103702366352 34.50341522693634 8635.7206213772297 23.204527616500854 457.52740502357483 31.59829169511795 51.887344807386398 1024.6228218078613 132.36200034618378 1025.5124484300613 126.31873312592506 22.633574068546295 277.34273689985275 656.9149606525898 53.620726466178894 218.61932730674744 61.554770648479462 74.237433135509491 29.811224341392517 95.530340582132339 27.910998940467834 133.04715144634247 22.082506865262985 22.082261741161346 23.307111829519272 28.707157045602798 22.63472193479538 23.52028876543045 64.166463524103165 28.707002639770508 27.335488945245743 61.076014637947083 79.992347478866577 95.769048869609833 115.9314751625061 26.774895936250687
leaf_count=122 928 80 186 172 198 80 398 4160 91 102 133 15633 1086 272 95 92 97 129 405 1130069 371 23914 147 190 158 112 142 92 4271 84 87 83 122 4102 83 182 1413 465766 181 434 535 19568 125 30012 83 1653 113 188 3712 460 3564 439 82 1002 2283 187 792 223 258 108 332 97 482 80 80 81 104 82 84 223 104 95 213 278 346 420 97
internal_value=0 -0.00940575 0.0223002 0.0143319 -0.0103597 -0.01052 0.0120668 0.020342 0.0237726 0.0223551 0.0236704 -0.0105598 -0.00367317 0.00166771 -0.0105738 0.00667953 0.0237854 0.021933 0.00778673 -0.0105766 -0.00988128 -0.0105862 0.0238031 0.0238219 -0.0106383 0.0238035 -0.0106372 -0.0106389 -0.0106086 0.0238047 -0.010638 0.0238043 -0.0106856 0.0238031 -0.0106288 0.0238031 0.0238084 0.0238031 -0.0106375 -0.010648 -0.0106327 -0.0106371 -0.0106063 0.0238031 -0.0107113 -0.0106245 -0.0107097 -0.0106051 -0.0106036 0.023803 0.0238031 0.023803 -0.0106035 -0.0106242 0.0238031 0.0239564 -0.0106036 -0.0106036 0.0238031 -0.0106036 0.0238031 0.0238031 -0.0106036 -0.0106036 -0.0106035 0.0238031 -0.0106035 -0.0106036 -0.0107144 0.0238031 -0.0106035 0.0238031 0.0239565 0.023803 -0.0106242 -0.0106035 -0.0106035
internal_weight=0 339496 143199 13116.9 326379 324684 570.749 1694.7 137072 1591.19 9543.49 324113 656.643 105.353 323457 52.6986 137020 1290.48 150.763 323404 4422.17 318982 135730 1485.84 6127.14 9506.62 6036.17 5751.31 3573.38 1316.66 5679.95 1139.71 58.3053 135702 523.993 135660 1586.71 134073 5621.65 170.753 449.174 5450.89 194.669 9474.48 90.9654 852.812 71.3595 74.8197 2720.57 9425 1115.86 376.079 1238.82 830.639 9292.64 169.178 1481.75 1263.13 132.649 1216.19 1292.54 261.558 162.858 103.511 172.517 97.5445 1053.33 1201.57 67.7609 1089.68 284.862 153.654 114.697 107.903 373.112 150.435 81.4288
internal_count=1725047 1226563 498484 46109 1180454 1174539 2012 5915 476388 5540 33172 1172527 2353 374 1170174 187 476202 4495 534 1169987 16004 1153983 471707 5166 22096 33039 21771 20739 12937 4576 20484 3961 209 471610 1892 471463 5515 465948 20275 615 1621 19660 705 32927 325 3081 255 271 9856 32755 3878 1307 4488 3001 32295 590 5368 4576 461 4406 4492 909 590 375 625 339 3816 4353 242 3787 1032 534 400 375 1348 545 295
is_linear=0
shrinkage=0.01


Tree=10
num_leaves=68
num_cat=0
split_feature=48 53 60 46 1 21 60 22 51 34 49 14 1 17 51 54 2 4 6 21 26 62 29 19 0 50 38 53 25 59 51 39 21 9 47 14 18 53 22 21 53 53 6 17 11 3 7 58 7 4 8 24 41 0 60 8 20 0 0 0 2 4 0 0 0 8 2
split_gain=562568 334562 27351.5 25224 15782.4 14227.9 37513.4 9013.58 5186.14 2720.05 1629 12268.8 730.554 682.091 528.379 7253.82 334.936 206.794 23.8046 11.3483 0.448066 0.447112 0.165472 0.130492 0.107225 0.0835683 0.177343 0.0598538 0.145807 0.0182127 0.00741605 0.000256383 0.000127467 0.000104677 5.59668e-05 5.49799e-05 1.4583e-05 1.15279e-05 1.13866e-05 1.11141e-05 1.07446e-05 2.00682e-06 1.55835e-06 1.27977e-06 1.20153e-06 8.87043e-07 2.64565e-07 9.53469e-08 7.84457e-08 1.42829e-08 2.73576e-09 1.90266e-09 1.39219e-09 2.19188e-10 7.45786e-11 7.30367e-11 9.09495e-12 1.81899e-12 1.81899e-12 4.54747e-13 4.54747e-13 2.84217e-14 1.42109e-14 1.42109e-14 1.42109e-14 1.42109e-14 3.55271e-15
threshold=0.35410295899922101 0.45201794078693441 -0.70060562752012312 0.45956934328346155 0.13086618735447433 -0.21792040869160337 -0.378835243481004 -0.51234078521832249 0.13348939124601608 0.11910099716776809 0.89362970791789875 0.050303714936349699 0.12235743943835538 0.44595251124990548 0.21482686481388322 -0.069567037047339422 0.096218470144391138 0.63513625874850455 -0.72383326250543145 -0.22176109912333147 -0.28988025840575049 -0.15437878246147904 0.14047046064555566 0.59687126071782293 0.23033388450861769 0.50558915595908582 0.61156948133018429 0.45984356836309676 -0.55771810616513762 -0.0055071143329213637 0.47001530308088801 -0.40833915142733551 -0.22176109912333147 0.66227490519668974 -0.66826373376259751 0.28441630478484464 -0.22106756817008932 0.51319143851810833 -0.56175876208098607 -0.019192520666354143 0.54482302025532092 0.50594273339493878 -0.87823529103094378 0.59037405734336812 0.014058818077467327 0.63968592703744276 -0.053136734833612982 0.13959275651867301 0.095427813913599016 0.68713930445190707 0.19293324047839147 -0.59521047996799814 -0.11643342077153275 0.24761332531431726 1.0000000180025095e-35 0.017143803832039794 0.5745654440757918 -0.029000265208402268 0.13244470429834607 0.24761332531431726 -0.22420522027499237 0.40801859799418916 -0.026686169049973306 -0.05025016387200492 0.25301967617143706 0.047179895219995632 -0.32236012835850264
decision_type=2 2 2 2 2 2 2 2 2 2 2 2 2 2 2 2 2 2 2 2 2 2 2 2 2 2 2 2 2 2 2 2 2 2 2 2 2 2 2 2 2 2 2 2 2 2 2 2 2 2 2 2 2 2 2 2 2 2 2 2 2 2 2 2 2 2 2
left_child=1 13 33 5 36 6 12 18 17 23 14 40 -4 38 15 -10 -16 -7 -5 35 -21 -8 -19 25 34 26 30 28 -27 -29 -6 -24 37 43 -20 -14 -3 -23 39 -1 -12 -34 -11 56 49 -38 -36 50 51 -9 53 59 -46 54 -40 -49 -2 -13 -53 -45 -50 -44 63 -47 -55 -54 -51
right_child=2 4 3 7 9 8 21 44 10 42 11 57 19 -15 16 -17 -18 22 24 20 -22 32 31 -25 -26 27 -28 29 -30 -31 -32 -33 41 -35 46 -37 45 -39 47 -41 -42 -43 61 48 52 62 -48 55 60 66 -52 58 65 64 -56 -57 -58 -59 -60 -61 -62 -63 -64 -65 -66 -67 -68
leaf_value=-0.0081224023202074985 0.081115852550814646 -0.0081234312421098586 -0.0081073967601657526 0.06440599533148339 0.081111151946352128 0.030023263427877679 -0.0058561543702608035 -0.0081094899852449838 0.077572370642331759 -0.0081047358781176134 -0.0081070465301131683 0.081114509462394652 0.081115087763527036 0.075342086248574719 -0.0080472427548662229 -0.0081098214121955881 0.0216851076517478 0.082392441137471628 0.081091113007009011 0.087751159105948023 0.085332761040903413 -0.0081070832326080138 0.081172398916792718 0.082314340866379676 0.082148529178629068 0.081115420684043843 0.082745731447215518 0.081117715027172965 0.082527913450030646 0.081541827632946998 0.08145099827606446 0.081115876817452415 -0.0081143728533402387 0.081147827855435894 0.081114509462394652 0.081125190751131712 -0.00810703997552281 -0.0081090676512435081 -0.0081070470365565833 -0.0081078921335737755 -0.0081090224009285113 -0.0081165206641185747 -0.0081090030179399048 0.081114439315882234 -0.0081071416991561635 -0.0081101289394184244 0.081115839027273234 -0.0081074257636489407 0.081114045595223921 -0.0081090030179399083 -0.008106896447589303 0.081114509462394652 -0.0081070363613703345 -0.0081070363613703345 -0.0081070518265032258 -0.0081073967696583156 0.081115842962120321 0.081114509462394652 0.081114508462098556 0.081114439315882234 0.081114045595223921 -0.0081090022249133316 -0.0081101293906995012 -0.008110128950133336 -0.0081070363613703345 -0.0081070363613703345 -0.0081090030179399065
leaf_weight=9.5279034450650233 68.583611905574799 8.4000896140933019 9.2408023774623853 8.6714171990752202 22.936985269188884 8.8980164155364019 8.8583125099539739 7.5069605037569991 106.25849868357182 17.492085099220276 872.36553669720888 149.81210456043482 567.35797294229269 9.8095085769891721 136173.76214713603 1408.8950429558754 37.898663423955441 12.797300294041632 9.4006553739309293 23.657641410827637 11.329996824264525 1077.8354469016194 9.8394435942172986 9.1645474433898908 10.287370629608629 24.837902650237083 9.7809378951787931 12716.347405187786 10.354887552559374 10.133448444306849 8.9174553379416448 43.522051975131035 61.023865774273872 9.8421237766742689 15.551816679537295 59.515021413564682 9.7903588786721212 401.89594374597073 5918.1428762599826 11.836370527744291 402.05553796887398 151.51461316645145 8.0575634166598338 33.229447804391384 14.318128898739813 110.84954932332039 397.4046096354723 9.9804614633321744 15.663780570030211 17.411746233701706 12.09694468975067 138.28809651732445 92.91555143892765 24.291043765842915 345.90094033628702 67.088225990533829 12.083247743546961 25.509454697370529 24.166852116584778 17.789502359926701 32.446402609348297 8.7058653682470304 10.296487793326376 63.077568173408508 164.40326198935509 8.497247248888014 13.058809675276281
leaf_count=101 613 89 100 79 205 87 95 81 958 190 9445 1339 5071 89 1471072 15195 397 116 84 227 106 11669 88 83 93 222 89 113661 94 91 80 389 654 88 139 532 106 4339 64075 128 4341 1619 87 297 155 1195 3552 108 140 188 131 1236 1006 263 3745 726 108 228 216 159 290 94 111 680 1780 92 141
internal_value=0 0.0501971 -0.00691322 -0.00713116 0.0795031 -0.00740414 0.0168801 0.0578413 -0.00781783 0.0808836 -0.00786265 0.00268223 0.0801926 -0.00798254 -0.00797364 -0.00210089 -0.00803897 0.0752839 0.080811 0.0814254 0.086968 -0.00809693 0.0813712 0.0811215 0.0811398 0.0811207 0.0815679 0.0811192 0.081531 0.0811181 0.0812063 0.0811263 -0.00810866 0.0811157 0.0811152 0.081116 -0.00811053 -0.00810762 -0.00810707 -0.00811436 -0.00810767 -0.0081159 -0.00810682 0.0811147 -0.00810756 -0.00810997 0.0811158 -0.00810705 0.0811144 -0.0081091 -0.00810705 0.0811145 -0.00810705 -0.00810705 -0.00810705 -0.0081074 0.0811159 0.0811145 0.0811145 0.0811144 0.081114 -0.008109 -0.00811013 -0.00811013 -0.00810704 -0.00810704 -0.008109
internal_weight=0 19622.2 142571 142219 13049.1 141624 2372.23 595.024 139252 12846.7 139177 1449.74 671.101 6573.08 137727 1515.15 136212 75.0568 441.316 661.861 34.9876 1701.13 66.1588 12812.5 432.644 12803.3 41.6354 12761.7 35.1928 12726.5 31.8544 53.3615 1692.27 352.093 422.357 626.873 202.414 1479.73 6563.27 21.3643 1274.42 212.538 34.2555 342.251 153.708 194.014 412.956 6541.9 261.584 37.9775 6464.84 213.474 115.731 6452.74 6264.04 77.0687 80.6669 175.322 162.455 51.019 48.1102 16.7634 184.224 173.927 188.694 101.413 30.4706
internal_count=1725047 188223 1536824 1533677 117077 1528067 24412 5610 1503655 114896 1502975 15353 6036 71146 1487622 16153 1471469 680 3947 5936 333 18376 593 114525 3868 114442 374 114068 316 113752 285 477 18281 3147 3775 5603 2181 16008 71057 229 13786 2273 371 3059 1663 2092 3691 70828 2338 410 69994 1908 1253 69863 67820 834 721 1567 1452 456 430 181 1986 1875 2043 1098 329
is_linear=0
shrinkage=0.01


Tree=11
num_leaves=80
num_cat=0
split_feature=53 30 63 17 2 0 0 1 8 49 0 53 11 46 3 16 58 32 34 46 0 63 18 12 0 61 53 35 58 59 27 19 43 32 63 36 36 1 53 43 38 22 2 31 14 20 38 13 0 20 6 18 4 25 23 51 17 17 7 39 2 40 2 3 0 21 55 37 16 13 10 0 45 15 0 1 0 2 0
split_gain=979164 139567 54520.6 17018.9 10727.2 3799.7 3666.14 3595.35 2889.9 1924.84 1537.9 1332.22 1164.43 950.341 1346.85 466.104 275.636 1972.46 249.426 222.577 222.226 171.253 44.5992 47.9907 43.5663 12.7481 209.44 13.2749 11.1954 3.65262 0.141269 0.0174273 0.00348308 0.00250033 0.00229651 0.00151827 0.00140542 0.0013429 0.000424953 0.000342123 0.00022191 0.000185575 6.60097e-05 4.48922e-05 3.97683e-05 3.63842e-05 3.14779e-05 1.4451e-05 1.22802e-05 9.66571e-06 7.67963e-06 6.59342e-06 3.26967e-06 2.14745e-06 1.02962e-07 1.06695e-07 7.83034e-08 6.19375e-08 4.60248e-08 4.3407e-08 2.54618e-08 1.58623e-08 1.60494e-08 1.15643e-08 7.67449e-09 3.70665e-09 1.21508e-09 5.57748e-10 4.97494e-10 4.3201e-10 4.09273e-12 1.81899e-12 1.13687e-12 6.82121e-13 4.54747e-13 4.54747e-13 2.27374e-13 2.27374e-13 1.13687e-13
threshold=0.51319143851810833 0.20502946245615283 -0.046912456352309104 0.54060589891488542 -0.45418511605712719 0.0081418688414989209 0.24761332531431726 0.26898491169764965 -0.14995964958336597 0.36861986398177082 0.059360616026848334 0.3892429183558811 0.26873444931401763 0.45956934328346155 0.56493132310947936 -0.19905232970655837 0.17056674652747703 0.43580608904370033 0.082310873750368649 0.17575574689220169 0.26430922052831052 -0.22677055252035411 -0.40681706665938794 0.11471396672468613 0.23837843218809415 0.4712915453510737 0.57010668361450068 0.28478293464309579 0.13679502479719133 0.0047778995333097951 -0.49684886862717603 0.5067190249121305 -0.16918190518381693 0.27340889961369952 0.044146264546920888 0.33631306388644905 0.25996602452453982 0.59750116998040503 0.45497405678069947 -0.31236341662955791 -0.024365672347512687 -0.5149077841313493 0.096218470144391138 0.24822085970685012 0.27340377319924253 0.36018302443838068 -0.012220667127109652 0.3544259070483855 0.16781388386556895 0.30240769983808075 -0.48290821638458825 -0.33411185666354998 0.68898760630554057 -0.64645860670044131 0.46351048430839525 0.21482686481388322 0.57206187370790162 0.57206187370790162 0.1465235085332188 -0.24147072252534443 -0.41776609594140512 -0.053358161507326342 0.13133376764232749 0.53504902565874912 -0.056800875812142257 0.0034575398423724421 -0.07505740339010708 0.32635126513965801 -0.35157454429452667 0.7433216468333993 0.38489228879213061 0.03659920168979644 -0.58771996073066279 0.079529696496508984 -0.037220372668459657 0.16647333243536891 -0.1859306460599908 -0.56522353850845752 -0.089817161139783011
decision_type=2 2 2 2 2 2 2 2 2 2 2 2 2 2 2 2 2 2 2 2 2 2 2 2 2 2 2 2 2 2 2 2 2 2 2 2 2 2 2 2 2 2 2 2 2 2 2 2 2 2 2 2 2 2 2 2 2 2 2 2 2 2 2 2 2 2 2 2 2 2 2 2 2 2 2 2 2 2 2
left_child=2 10 3 6 29 56 13 60 77 -10 40 49 15 16 -15 25 22 30 -19 20 48 -12 23 -1 -23 27 -27 -11 -24 34 -18 32 47 37 39 36 -36 41 -35 -4 71 45 -33 -40 54 -13 53 -21 -7 -6 -51 -16 -46 -41 55 76 63 -48 61 -34 -8 67 -63 -5 -14 -58 -57 -9 -56 -45 -54 -2 73 -67 -72 -62 -42 -3 -70
right_child=1 8 4 5 11 19 7 58 9 12 21 33 64 14 51 -17 17 18 -20 31 -22 24 28 -25 -26 26 -28 -29 -30 -31 -32 42 59 38 35 -37 -38 -39 43 46 44 -43 -44 69 52 -47 57 -49 -50 50 -52 -53 70 -55 68 66 65 -59 -60 -61 75 62 -64 -65 -66 72 -68 -69 78 -71 74 -73 -74 -75 -76 -77 -78 -79 -80
leaf_value=0.018664593700627643 0.018668485089152611 0.01866470515756315 0.018701029659068499 0.018664525256008212 0.018664556147148594 -0.012061406931367164 0.01866470515756315 -0.012101978452282447 0.018666838522150713 -0.012077202518622239 0.019075665019963713 -0.01206911519022264 0.01866470515756315 0.018664525256008212 -0.01210696985781895 0.018471499367408904 0.018664809287504892 -0.010421148051221156 0.018691995014858628 -0.012108769472013399 0.0067171143175008274 -0.0034470808820147658 0.018645634354713527 0.00051046216220272829 -0.012102067117536402 -0.003629293872261412 -0.012068027310107378 -0.010455120480588775 0.017998609543197503 0.014856771029838732 0.017927226196622549 -0.012231693033756527 -0.012068009936948792 -0.012139763954486576 0.018692714744824607 0.018665180542201596 0.018790707116124111 -0.012068009989167286 -0.012088201841195204 0.018671458722378357 0.018664523396176129 -0.012099679187300587 -0.01221347611050376 -0.012101929845598203 0.018664625187378416 -0.012080557402065996 0.018664694703162871 -0.012101984849844229 -0.012068009989167286 0.018674823333559722 0.018668450777101105 -0.012101931065880075 0.018666835286924234 0.018668485089152611 0.018664434574145301 0.01866463759172237 0.018664418027616172 0.018664396276183891 -0.01210151717718699 -0.012068240425690808 0.018664525256008212 -0.012101931749350512 -0.012102239629106544 0.01866470515756315 0.018664523493042384 0.018664303573253525 0.018664704803022316 -0.012101930736236511 0.018664481613574237 -0.012101965415769345 0.018666838522150713 0.018668485089152611 0.018664305273022576 0.018664302372100913 0.018666838522150713 0.018664525256008212 0.018664523396176129 0.01866470515756315 0.018664481613574237
leaf_weight=30.125461161136627 1696.8446508049965 74.672538787126541 27.543882012367249 162.16491025686264 45.829188853502274 45.464338809251785 89.414756745100021 25.451702266931534 204.14000084996223 313838.51900163293 25.131225824356079 27.917127817869186 31.08685091137886 340.99498915672302 29.544190019369125 49.989270448684692 2264.5287883281708 296.28937014937401 32.673395067453384 34.890537559986115 133.2253945171833 102.11300039291382 189713.85069665313 28.185098022222519 135.11460483074188 311.83228385448456 5174.0997116565704 505.34199523925781 2712.4470149576664 25.592894554138184 26.268485128879547 44.908828318119049 1657.6801503002644 30.538273394107819 25.946262449026108 35.252833664417267 33.575583189725876 970.14280834794044 25.433023750782013 27.878703653812408 63.135350435972214 50.896357119083405 35.705996602773666 334.64192470908165 71.467808485031128 6117.2497633993626 957.60337716341019 313.27599853277206 74.023182272911072 25.634035140275955 72.103926122188568 214.61076140403748 38.456519663333893 188.43147397041321 25.638761758804321 26.920603334903717 31.40749204158783 74.993427157402039 25.765298515558243 85.943212509155273 588.40864670276642 32.364435106515884 35.507175952196121 45.829068869352341 92.299395561218262 203.82862794399261 12167.778052359819 656.71518382430077 154.15292462706566 38.020419418811798 682.28267160058022 217.91394948959351 29.805128663778305 50.316187173128128 290.66715976595879 66.340190559625626 270.48850643634796 232.3501743376255 28.843582570552826
leaf_count=94 5295 233 86 506 143 145 279 81 637 1000092 79 89 97 1064 94 156 7066 941 102 111 419 321 591969 89 430 988 16496 1607 8466 80 82 142 5285 97 81 110 105 3093 81 87 197 162 113 1065 223 19490 2988 997 236 80 225 683 120 588 80 84 98 234 82 274 1836 103 113 143 288 636 37967 2090 481 121 2129 680 93 157 907 207 844 725 90
internal_value=0 -0.0105619 0.0169848 0.0180751 -0.00690597 -0.00577248 0.0184317 0.00296108 -0.0120006 -0.0120301 0.0182649 -0.0115099 -0.0120496 0.0185519 0.00582691 -0.0120615 0.01859 0.0153682 -0.00752956 -0.0110461 -0.00216367 -0.00574695 0.0186339 0.00988958 -0.00837659 -0.0120663 -0.0115884 -0.0120746 0.0186365 0.0185998 0.0186564 -0.0120793 -0.0120738 -0.0120804 0.0186697 0.0187172 0.018748 -0.0120789 -0.0121038 0.0186662 0.0186653 -0.0120807 -0.0122236 -0.0121011 0.0186649 -0.0120805 0.0186654 -0.0121027 -0.0120655 0.0186683 0.0186701 -0.0121025 0.0186667 0.0186689 0.0186647 0.0186647 0.0186644 0.0186647 -0.0121019 -0.012068 0.0186645 -0.0121019 -0.0121021 0.0186646 0.0186646 0.0186643 0.0186647 -0.0121019 0.0186645 -0.0121019 0.0186668 0.0186685 0.0186643 0.0186643 0.0186668 0.0186645 0.0186645 0.0186647 0.0186645
internal_weight=0 336511 209293 200158 9135.23 2948.47 197209 1519.97 320514 320207 15996.9 7738.41 320003 195690 585.15 319880 195104 2619.76 328.963 2425.12 252.713 262.359 192485 58.3106 237.228 319830 5485.93 314344 192426 1396.82 2290.8 2172.4 2091.79 7594.84 1371.23 94.7747 59.5218 7166.21 428.634 1276.45 15734.6 6196.06 80.6148 398.095 13819.8 6145.17 1248.91 348.167 119.488 143.567 97.738 244.155 1082.87 216.31 12737 12528.3 523.351 1032.6 775.804 1743.62 744.164 750.038 67.8716 207.994 123.386 315.357 12194.7 682.167 208.635 372.662 1011.41 1914.76 283.95 254.145 972.95 654.749 333.624 307.023 182.997
internal_count=1725047 1071246 653801 624796 29005 9355 615441 4791 1021319 1020361 49927 24646 1019724 610650 1841 1019339 608809 8191 1043 7722 800 830 600618 183 751 1019183 17484 1001699 600435 4359 7148 6922 6667 24198 4279 296 186 22834 1364 3983 49097 19741 255 1267 43122 19579 3897 1108 381 448 305 777 3379 675 39743 39092 1633 3222 2469 5559 2322 2387 216 649 385 984 38051 2171 651 1186 3156 5975 886 793 3036 2043 1041 958 571
is_linear=0
shrinkage=0.01


Tree=12
num_leaves=68
num_cat=0
split_feature=63 27 27 34 58 1 4 48 58 4 17 51 53 43 0 52 22 41 2 35 60 34 20 25 30 42 48 24 58 39 21 40 18 7 59 5 2 22 12 12 48 49 6 14 40 8 59 14 6 0 17 1 4 2 0 2 35 14 1 7 45 0 0 0 59 0 0
split_gain=1.08669e+06 44921.4 23080.9 5955.1 2488.84 1168.65 95.1869 63.6596 24.7765 63.4102 0.177538 0.0913317 0.0134872 0.0112052 0.00895831 0.00413279 0.00389667 0.00254887 0.00165092 0.00163503 0.000893577 0.000878744 0.000781695 0.000754672 0.000528457 0.0036096 0.000411614 0.000257144 0.000199002 0.00192302 0.00018293 0.00014917 0.000102521 6.72601e-05 5.61741e-05 5.06336e-05 4.45431e-05 2.51953e-05 8.71002e-06 7.27516e-06 7.10428e-06 4.67619e-06 1.90478e-06 1.6445e-06 8.27826e-07 7.50837e-07 6.43234e-07 1.04366e-06 2.78942e-08 2.29816e-08 2.9499e-09 2.00475e-09 1.89539e-09 1.60071e-09 1.34828e-09 9.23137e-10 9.69749e-11 4.70095e-11 2.74412e-11 3.63798e-12 9.09495e-13 2.27374e-13 5.68434e-14 5.68434e-14 2.84217e-14 7.10543e-15 7.10543e-15
threshold=0.044146264546920888 -0.31499254258422288 -0.084271294380839162 -0.14252584472284183 0.37461235083417338 0.28652274756312079 0.36200290753043668 0.32525929107724555 0.041086879864793709 0.47359273511988798 0.42817253332949995 0.33527534556859806 0.4474623672055783 -0.22504013083610666 0.24761332531431726 0.61599819583783899 -0.45928940296981163 -0.21599053766207169 0.069264953715138564 0.28478293464309579 -0.60070081456738544 0.12029595019857221 0.58013523479874729 -0.48610128532773722 0.68825633421479615 -0.040035450385148226 0.33642042507135855 -0.59294576400263976 0.13679502479719133 -0.19752216673449649 -0.21792040869160337 -0.18961238909370023 -0.40681706665938794 -0.084782610766526226 -0.15809679241895533 -0.627607562181977 -0.60887697289201059 -0.57803022254359837 0.06249577285447365 0.3073244892049069 0.3473362654315974 0.59458420623217068 -0.73207078592722252 0.019848806326364443 0.24584190748264248 0.18707244172574383 0.0580571733880485 0.28441630478484464 -0.48290821638458825 -0.20352696337735757 0.57568431360549455 0.11664924420091481 0.38417368181075306 -0.058128825287666032 0.15145167097455295 -0.41776609594140512 0.19148360518864346 -0.07811320515050689 0.082195539483529562 -0.22685221224675048 -0.58328849170362507 0.083626965476894147 0.28399880213549961 0.2345231040714458 -0.25626015637590888 0.13091514468635165 0.26148867460732655
decision_type=2 2 2 2 2 2 2 2 2 2 2 2 2 2 2 2 2 2 2 2 2 2 2 2 2 2 2 2 2 2 2 2 2 2 2 2 2 2 2 2 2 2 2 2 2 2 2 2 2 2 2 2 2 2 2 2 2 2 2 2 2 2 2 2 2 2 2
left_child=2 6 4 45 10 53 -2 -3 9 -9 14 21 35 15 20 -14 31 34 19 24 37 22 27 -24 30 -26 -15 -12 32 -30 -10 -16 -22 -19 -8 40 42 43 -23 46 -13 -33 60 -1 48 51 47 -35 52 -21 54 58 -5 61 65 66 -40 -53 -4 -54 -36 -6 -57 -59 -65 -7 -18
right_child=1 7 3 44 5 50 17 8 18 -11 11 12 13 26 16 -17 55 33 -20 49 28 38 23 -25 25 -27 -28 -29 29 -31 -32 41 -34 39 36 -37 -38 -39 56 -41 -42 -43 -44 -45 -46 -47 -48 -49 -50 -51 -52 57 59 -55 -56 62 -58 63 -60 -61 -62 -63 -64 64 -66 -67 -68
leaf_value=-0.0097475644939784781 0.013222175058795995 0.011072892844595903 -0.0097148180477968412 0.028924154790473972 0.028924212765660318 -0.0097475641737151883 -0.0097143961576008353 0.028924212765660318 0.028936458345178911 0.0086829038905640605 -0.0097552639557771798 -0.0097094335689463535 -0.0098222287069560463 -0.0096976841778162199 -0.0097736174721889842 -0.0097484129955402142 -0.0097147644497144608 -0.0097633769122839643 0.029006318698945315 0.028975953883355447 -0.0097332699868863514 -0.0097221854957346924 -0.0097550113866987417 -0.0098234205703006481 0.029065700190378799 0.028923668470686947 -0.0097275163154561702 -0.0097476111337096438 -0.0097159756153612706 -0.009760127003172997 0.028924211796036645 -0.0097513951669685114 -0.0097148343809988422 -0.0097475815285809602 -0.0097275139748880229 -0.0097305618016827918 -0.009741952615732144 -0.0097374940167601169 -0.0097275139748880229 -0.0097513138588325408 -0.0097148402557668823 -0.0097475705330218997 -0.0097242925801238698 -0.0097510345623744842 0.028926123327130963 -0.0097168902322078664 -0.009748985056199224 -0.0097462237404781354 0.028923900856229964 0.028976362741749983 -0.0097476543739254892 -0.009714857009081642 0.028924212765660318 0.028924121465195338 -0.0097474679465343293 -0.0097148047383198797 -0.0097274970338532881 -0.0097148730149044515 -0.0097148047383198797 0.028924212765660318 -0.0097275128556430866 0.028924212765660318 -0.0097148047383198797 -0.0097148730149044515 -0.0097148730149044515 -0.0097475641737151883 -0.0097147644497144608
leaf_weight=48.965510666370392 18.154968649148941 19.989962726831436 30.742558196187019 58.131053358316422 140.58990061283112 40.922861844301224 32.381933569908142 55.057975649833679 122.11827209591866 21.528477817773819 446.93129093945026 24.37301030755043 78.949651196599007 46.268775463104248 22.609503611922264 1930.7937144935131 30.742152377963066 27.540494844317436 24.538714796304703 39.902634859085083 30.170988470315933 38.321290463209152 41.23138815164566 26.484543457627296 20.676927894353867 132.90901646018028 120836.49008046091 24962.26001188159 5115.023540019989 100.58933600783348 101543.2974576056 32.910239830613136 142160.19999234378 2108.6006298214197 659.13562178611755 20.494570538401604 21.732125744223595 29.732141137123108 105.69710506498814 53.034416913986206 8445.8012578338385 1116.2733062654734 18.817600905895233 18.939497902989388 22.790462523698807 19.018285363912582 31.471578270196915 58.172179341316223 29.449821263551712 20.974268853664398 32.644376963376999 19.243617802858353 196.92829430103302 20.99889874458313 18.923429235816002 55.148682221770287 49.670370504260063 265.42214964330196 31.211807385087013 1652.2514367103577 90.160312116146088 83.483256101608276 377.82714203000069 32.151047304272652 103.02415888011456 22.235543429851532 34.731591999530792
leaf_count=207 74 81 131 227 549 173 138 215 477 88 1886 104 328 198 95 8161 131 116 96 156 128 163 174 110 81 519 513312 105526 21790 424 396524 139 605770 8914 2800 87 92 126 449 224 35989 4719 80 80 89 81 133 246 115 82 138 82 769 82 80 235 211 1131 133 6452 383 326 1610 137 439 94 148
internal_value=0 0.0277734 -0.0094473 0.0210591 -0.00969212 0.0165932 -0.00960874 0.0289165 0.02892 0.0232344 -0.009723 -0.00973042 -0.00972705 -0.00972789 -0.00971519 -0.00975131 -0.00973822 -0.0097424 0.0289243 0.0289243 -0.00971493 -0.00974767 -0.00974784 -0.00978177 0.0289243 0.0289428 -0.0097275 -0.00974775 -0.00971491 -0.00971683 0.0289242 -0.00974818 -0.00971484 -0.00974784 -0.00972731 -0.00971486 -0.00972783 -0.00974517 -0.00972646 -0.00974765 -0.00971482 -0.00974768 -0.00972743 -0.00974853 0.0289242 -0.00971494 -0.00974757 -0.00974755 0.0289242 0.0289761 -0.00974757 -0.00971486 0.0289242 0.0289242 -0.00974754 -0.0097148 -0.00972751 -0.00971487 -0.00971481 0.0289242 -0.00972751 0.0289242 -0.0097148 -0.00971487 -0.00971487 -0.00974756 -0.00971476
internal_weight=0 105120 309048 2460.36 306587 359.798 3119.2 102001 101981 76.5865 306228 157054 131383 122893 149174 2009.74 1670.24 3101.05 101904 101880 147504 25670.6 25476.9 67.7159 101819 153.586 120883 25409.2 147406 5215.61 101665 1171.79 142190 2278.82 822.228 8490.67 789.846 97.6371 193.689 2251.28 8470.17 1149.18 768.114 67.905 1959.55 500.814 2198.24 2166.77 1936.76 60.8769 114.726 481.795 1907.31 245.072 82.0818 498.45 155.367 419.841 61.9544 1849.18 749.296 224.073 432.976 400.597 135.175 63.1584 65.4737
internal_count=1725047 411519 1313528 9786 1303742 1442 13200 398319 398238 303 1302300 666698 558179 521999 635602 8489 7077 13126 397935 397839 628525 108519 107696 284 397601 600 513510 107412 628112 22214 397001 4953 605898 9633 3493 36180 3355 413 823 9517 36093 4858 3263 287 7652 2134 9293 9160 7563 238 485 2053 7448 957 347 2124 660 1789 264 7221 3183 875 1845 1707 576 267 279
is_linear=0
shrinkage=0.01


Tree=13
num_leaves=79
num_cat=0
split_feature=17 60 59 60 17 18 2 17 23 0 0 13 59 17 24 33 0 53 22 0 44 37 52 47 55 0 60 0 16 11 51 1 36 23 5 51 61 21 10 11 39 18 12 5 43 4 44 2 36 10 35 43 34 41 32 24 10 12 0 0 37 56 10 17 41 2 7 12 21 0 0 0 2 0 0 18 0 5
split_gain=984047 85619.3 63998.7 16211.5 15797.5 3293.62 4221.9 1018.66 955.97 1054.39 581.468 442.38 278.261 1870.83 218.486 154.852 150.899 42.0849 324.546 121.257 23.9469 0.131637 0.0724942 0.0346001 0.0108653 0.00737585 0.00798294 0.00330363 0.00324027 0.00299122 0.00287541 0.00192748 0.00168387 0.00151953 0.00109347 0.000748363 0.000545192 0.000379851 0.000256307 0.00021802 0.000557842 0.000148043 0.000125293 0.000104707 9.13819e-05 8.02433e-05 7.20531e-05 5.07876e-05 3.10418e-05 1.23641e-05 3.79369e-06 3.72897e-06 1.09079e-07 1.02751e-07 5.82731e-08 5.21759e-08 3.98345e-08 2.32435e-08 8.85404e-09 5.90808e-09 3.24735e-09 1.41654e-09 9.05686e-10 8.59245e-10 6.08864e-10 5.40055e-10 4.52928e-10 2.80011e-10 1.11186e-10 7.27596e-12 4.54747e-13 2.27374e-13 2.27374e-13 5.68434e-14 5.68434e-14 5.68434e-14 1.42109e-14 7.10543e-15
threshold=0.56575077715499611 -0.28649238586104242 0.075871424741306842 0.024875376364544947 0.43639824507994057 -0.37986892971550273 -0.058128825287666032 0.5097757602421279 0.46351048430839525 0.067774087656675377 -0.34978474507412494 0.66775046251831471 0.06546391281766907 0.49906466358665658 -0.38258622543924942 0.75950929042166415 0.31845408838854383 0.49020581264037194 -0.33181977021761755 0.26430922052831052 -0.70657404656249756 0.21717155543548708 0.85651637869522357 -0.43613645872866408 0.43483085446904129 -0.13478364570270576 -0.36946445107443093 0.17585057012853825 -0.51316249982713635 0.010332503160943753 0.4639685113928958 0.016121393953507455 0.29879716260176176 0.23037263237768657 -0.92275374213917394 0.33032506254623178 -0.048289841388681143 -0.21792040869160337 0.53503034712609077 -0.016911940279727672 -0.5672382631686228 -0.26286703317818266 0.24787042882003213 -0.88808960955800587 -0.35094867368487886 0.73309036434715036 -0.51498975244872025 -0.53176024910631836 0.30142606205512495 0.52355479293936102 0.12044721081909678 -0.29126233929049755 -0.0084463727764523874 -0.1538454199982017 0.34141605504798817 -0.60419690757548306 0.41977740611853026 0.16131459356231734 0.18823975386236005 0.34204178679707758 0.2903980248057571 -0.45879429789399528 0.35461446341162606 0.22091533507444203 -0.032267366719053094 -0.10022940530173241 0.10697778306010443 0.25744392635769198 0.38758798976779968 0.36669016496056744 0.28399880213549961 0.10252476186877026 -0.25923731834243452 -0.18960755639808508 0.38862594427497649 -0.056862268736237211 -0.05025016387200492 -0.79234468431997385
decision_type=2 2 2 2 2 2 2 2 2 2 2 2 2 2 2 2 2 2 2 2 2 2 2 2 2 2 2 2 2 2 2 2 2 2 2 2 2 2 2 2 2 2 2 2 2 2 2 2 2 2 2 2 2 2 2 2 2 2 2 2 2 2 2 2 2 2 2 2 2 2 2 2 2 2 2 2 2 2
left_child=2 24 3 5 28 6 21 65 12 38 -3 22 15 31 -13 20 -17 18 32 -20 -7 -1 27 34 25 62 29 -9 47 39 36 -14 -12 -31 -19 49 43 -37 -10 42 -41 -15 -27 -8 -28 -32 -38 -4 64 -36 54 -47 -29 -34 55 -6 60 72 -24 -11 68 -59 73 -62 -26 76 -55 -40 71 -57 -56 -30 -23 75 -71 -2 77 -5
right_child=1 10 4 7 50 8 30 11 9 59 17 14 13 41 -16 16 -18 23 19 -21 -22 57 58 -25 48 26 44 52 56 33 45 -33 53 -35 35 37 46 -39 67 40 -42 -43 -44 -45 -46 51 -48 -49 -50 -51 -52 -53 -54 66 70 69 -58 61 -60 -61 63 -63 -64 -65 -66 -67 -68 -69 -70 74 -72 -73 -74 -75 -76 -77 -78 -79
leaf_value=0.023984602175175142 -0.010550392138289852 -0.010550332912591959 -0.010595957197528313 -0.010550433553450495 0.02324744103280639 -0.010043123812759583 -0.010618953003686425 0.023356579152757826 -0.010586575103328093 0.023247886798709337 0.023332280299725301 -0.0068944692015414834 -0.010580503787252763 0.023247767698470811 0.023436684471420933 -0.010551875037937603 0.023247767698470811 0.023298455279595433 0.023247886798709337 0.0025312807354046681 -0.010541549950735852 0.023247886798709337 0.023468173714076609 0.02289049567293289 -0.010714885479031589 -0.010599653210654312 -0.01069271077261434 0.023247274535044504 -0.010550433553450495 -0.010611061847923499 -0.010569692082722314 -0.010550530159586289 0.023247281122003582 -0.010714838235619665 0.023289939422977496 0.02325273320389883 -0.01056362182558214 0.023247821540608973 -0.010550332583818038 -0.010639183467284295 -0.010599455488278887 0.023273877219485557 -0.010619374312176664 -0.010597690766727362 -0.010715239642556563 -0.010550580343145176 -0.01058108721475114 -0.01058042037035974 -0.010701540968891895 0.023280249576749592 0.023243940903224222 -0.010546327144328382 0.02324777133804623 0.023247843386761682 0.023247886798709337 0.023247767698470811 -0.010550015607059107 0.023247697466654119 0.023468327686511387 0.023247767698470811 -0.010550433553450495 0.023247767698470811 -0.010550458214311539 -0.010550493166100483 -0.010714947120976783 -0.010550489512048502 0.023247886681357782 -0.010550370855580714 -0.010550453597473421 0.023247767698470811 0.023247886798709337 -0.010550433553450495 0.023247886798709337 -0.010550392138289852 0.023247767698470811 -0.010550392138289852 -0.010550433553450495 -0.010550433553450495
leaf_weight=25.210504472255707 130.44440829753876 50.971551507711411 22.059733659029007 29.87084549665451 49.243212968111038 9948.8306897878647 24.892898410558701 28.48477229475975 22.028629064559937 67.308095723390579 24.13797864317894 76.082464218139648 275.72538506984711 163.46295288205147 34.526418179273605 26.039400935173035 26.806758761405945 42.783054262399673 37.58763787150383 113.77227365970612 309887.27702355385 24.475671172142029 55.087144672870636 27.090899914503098 34.442566573619843 7192.6217623054981 31.833703368902206 45.746825039386749 992.31496828794479 24.037129282951355 23.080468028783798 966.84148743748665 28.846719980239868 34.162352561950684 28.527901768684387 1592.7842790782452 27.176780998706818 137511.79993364215 149.35211598873138 50.196169376373291 119.45551413297653 25.043610394001007 32.360398173332214 332.90467572212219 41.444923430681229 221.1583443582058 180.52899450063705 454.85925874114037 23.76052525639534 24.457825213670731 25.934861302375793 22.732675522565842 1303.0414744317532 24.767072409391403 364.22129720449448 6684.7897772192955 22.470335125923157 31.177476167678833 115.97253084182739 109.26667973399162 29.596801042556763 363.34813234210014 22.471719145774841 132.09051859378815 29.962463110685349 21.923726052045822 1076.3467804193497 21.923362612724304 28.50069585442543 31.468803763389587 55.070260137319565 24.93804532289505 216.49313905835152 26.30811595916748 57.401429086923599 113.1797071993351 26.582312047481537 24.389956414699554
leaf_count=88 476 186 80 109 169 36206 90 98 80 231 83 272 1002 561 119 95 92 147 129 405 1128461 84 190 93 123 26071 114 157 3621 87 84 3528 99 122 98 5467 99 471937 545 181 433 86 117 1207 148 807 656 1653 85 84 89 83 4472 85 1250 22942 82 107 400 375 108 1247 82 482 107 80 3694 80 104 108 189 91 743 96 197 413 97 89
